<?xml version="1.0"?>
<opencv_storage>
<cascade>
  <stageType>BOOST</stageType>
  <featureType>HAAR</featureType>
  <height>30</height>
  <width>30</width>
  <stageParams>
    <boostType>GAB</boostType>
    <minHitRate>9.9500000476837158e-01</minHitRate>
    <maxFalseAlarm>5.0000000000000000e-01</maxFalseAlarm>
    <weightTrimRate>9.4999999999999996e-01</weightTrimRate>
    <maxDepth>1</maxDepth>
    <maxWeakCount>100</maxWeakCount></stageParams>
  <featureParams>
    <maxCatCount>0</maxCatCount>
    <featSize>1</featSize>
    <mode>BASIC</mode></featureParams>
  <stageNum>10</stageNum>
  <stages>
    <!-- stage 0 -->
    <_>
      <maxWeakCount>9</maxWeakCount>
      <stageThreshold>-1.2332788705825806e+00</stageThreshold>
      <weakClassifiers>
        <_>
          <internalNodes>
            0 -1 36 -7.8324659261852503e-04</internalNodes>
          <leafValues>
            7.4382436275482178e-01 -1.9019836187362671e-01</leafValues></_>
        <_>
          <internalNodes>
            0 -1 171 -3.8391404086723924e-04</internalNodes>
          <leafValues>
            7.3334610462188721e-01 -2.0594733953475952e-01</leafValues></_>
        <_>
          <internalNodes>
            0 -1 187 -4.4331536628305912e-04</internalNodes>
          <leafValues>
            6.8029683828353882e-01 -2.2093485295772552e-01</leafValues></_>
        <_>
          <internalNodes>
            0 -1 180 -1.2894319370388985e-03</internalNodes>
          <leafValues>
            7.6096653938293457e-01 -2.3339144885540009e-01</leafValues></_>
        <_>
          <internalNodes>
            0 -1 176 -1.0848315432667732e-03</internalNodes>
          <leafValues>
            6.9365310668945312e-01 -2.4558317661285400e-01</leafValues></_>
        <_>
          <internalNodes>
            0 -1 126 -8.1824799999594688e-03</internalNodes>
          <leafValues>
            -6.4001333713531494e-01 2.4886146187782288e-01</leafValues></_>
        <_>
          <internalNodes>
            0 -1 61 -1.2226570397615433e-03</internalNodes>
          <leafValues>
            4.2231586575508118e-01 -3.5625672340393066e-01</leafValues></_>
        <_>
          <internalNodes>
            0 -1 93 8.2163205370306969e-03</internalNodes>
          <leafValues>
            1.6510285437107086e-01 -8.5110795497894287e-01</leafValues></_>
        <_>
          <internalNodes>
            0 -1 43 -3.1788699561730027e-04</internalNodes>
          <leafValues>
            5.7782119512557983e-01 -2.4534988403320312e-01</leafValues></_></weakClassifiers></_>
    <!-- stage 1 -->
    <_>
      <maxWeakCount>8</maxWeakCount>
      <stageThreshold>-6.4969700574874878e-01</stageThreshold>
      <weakClassifiers>
        <_>
          <internalNodes>
            0 -1 57 -1.0746702319011092e-03</internalNodes>
          <leafValues>
            7.1510243415832520e-01 -1.1160466074943542e-01</leafValues></_>
        <_>
          <internalNodes>
            0 -1 171 -4.9114588182419538e-04</internalNodes>
          <leafValues>
            7.7475744485855103e-01 -1.9009928405284882e-01</leafValues></_>
        <_>
          <internalNodes>
            0 -1 79 4.2717653559520841e-04</internalNodes>
          <leafValues>
            -2.0121794939041138e-01 7.3969024419784546e-01</leafValues></_>
        <_>
          <internalNodes>
            0 -1 167 -6.7321222741156816e-04</internalNodes>
          <leafValues>
            8.1218636035919189e-01 -2.3170325160026550e-01</leafValues></_>
        <_>
          <internalNodes>
            0 -1 184 -7.3836394585669041e-04</internalNodes>
          <leafValues>
            6.9859236478805542e-01 -2.1086168289184570e-01</leafValues></_>
        <_>
          <internalNodes>
            0 -1 190 -5.9438875177875161e-04</internalNodes>
          <leafValues>
            7.9714965820312500e-01 -1.4892178773880005e-01</leafValues></_>
        <_>
          <internalNodes>
            0 -1 107 -9.4673957210034132e-04</internalNodes>
          <leafValues>
            6.3470613956451416e-01 -1.8949040770530701e-01</leafValues></_>
        <_>
          <internalNodes>
            0 -1 81 1.4741491759195924e-03</internalNodes>
          <leafValues>
            -1.8999455869197845e-01 7.0867300033569336e-01</leafValues></_></weakClassifiers></_>
    <!-- stage 2 -->
    <_>
      <maxWeakCount>10</maxWeakCount>
      <stageThreshold>-7.0523649454116821e-01</stageThreshold>
      <weakClassifiers>
        <_>
          <internalNodes>
            0 -1 155 -3.4236168721690774e-04</internalNodes>
          <leafValues>
            7.8581172227859497e-01 6.0805257409811020e-02</leafValues></_>
        <_>
          <internalNodes>
            0 -1 154 -5.2173179574310780e-04</internalNodes>
          <leafValues>
            7.8269028663635254e-01 -1.4277106523513794e-01</leafValues></_>
        <_>
          <internalNodes>
            0 -1 154 4.8957340186461806e-04</internalNodes>
          <leafValues>
            -2.4788096547126770e-01 7.2261911630630493e-01</leafValues></_>
        <_>
          <internalNodes>
            0 -1 175 4.4536439236253500e-04</internalNodes>
          <leafValues>
            -1.8538357317447662e-01 6.4820826053619385e-01</leafValues></_>
        <_>
          <internalNodes>
            0 -1 85 8.4764137864112854e-04</internalNodes>
          <leafValues>
            -2.3732295632362366e-01 4.9681803584098816e-01</leafValues></_>
        <_>
          <internalNodes>
            0 -1 147 3.9206148358061910e-04</internalNodes>
          <leafValues>
            -2.1072864532470703e-01 5.9321570396423340e-01</leafValues></_>
        <_>
          <internalNodes>
            0 -1 50 -1.8542293459177017e-02</internalNodes>
          <leafValues>
            -8.2079738378524780e-01 1.7887255549430847e-01</leafValues></_>
        <_>
          <internalNodes>
            0 -1 84 2.2018071264028549e-02</internalNodes>
          <leafValues>
            1.6969424486160278e-01 -7.0307201147079468e-01</leafValues></_>
        <_>
          <internalNodes>
            0 -1 166 -9.0531731257215142e-04</internalNodes>
          <leafValues>
            7.2720229625701904e-01 -2.1963202953338623e-01</leafValues></_>
        <_>
          <internalNodes>
            0 -1 35 1.7201693728566170e-02</internalNodes>
          <leafValues>
            2.0331929624080658e-01 -8.1716430187225342e-01</leafValues></_></weakClassifiers></_>
    <!-- stage 3 -->
    <_>
      <maxWeakCount>15</maxWeakCount>
      <stageThreshold>-1.0242882966995239e+00</stageThreshold>
      <weakClassifiers>
        <_>
          <internalNodes>
            0 -1 90 -2.0381556169013493e-05</internalNodes>
          <leafValues>
            5.2339279651641846e-01 -2.7448868751525879e-01</leafValues></_>
        <_>
          <internalNodes>
            0 -1 123 -1.2064466252923012e-02</internalNodes>
          <leafValues>
            -7.9018294811248779e-01 1.9776996970176697e-01</leafValues></_>
        <_>
          <internalNodes>
            0 -1 159 1.0049110278487206e-03</internalNodes>
          <leafValues>
            -2.2409844398498535e-01 6.0366344451904297e-01</leafValues></_>
        <_>
          <internalNodes>
            0 -1 173 -6.5009918762370944e-04</internalNodes>
          <leafValues>
            6.1109787225723267e-01 -1.9557157158851624e-01</leafValues></_>
        <_>
          <internalNodes>
            0 -1 158 5.3332850802689791e-04</internalNodes>
          <leafValues>
            -1.6130995750427246e-01 6.2746930122375488e-01</leafValues></_>
        <_>
          <internalNodes>
            0 -1 183 2.2721337154507637e-03</internalNodes>
          <leafValues>
            -1.7599092423915863e-01 6.2634176015853882e-01</leafValues></_>
        <_>
          <internalNodes>
            0 -1 189 -1.3586389832198620e-03</internalNodes>
          <leafValues>
            5.8154439926147461e-01 -1.6489139199256897e-01</leafValues></_>
        <_>
          <internalNodes>
            0 -1 4 -8.6546033620834351e-02</internalNodes>
          <leafValues>
            7.3490005731582642e-01 -9.3952558934688568e-02</leafValues></_>
        <_>
          <internalNodes>
            0 -1 14 1.9945468753576279e-02</internalNodes>
          <leafValues>
            -1.5062534809112549e-01 5.7376039028167725e-01</leafValues></_>
        <_>
          <internalNodes>
            0 -1 168 -9.6342113101854920e-04</internalNodes>
          <leafValues>
            5.1477634906768799e-01 -1.5295735001564026e-01</leafValues></_>
        <_>
          <internalNodes>
            0 -1 105 5.4323521908372641e-04</internalNodes>
          <leafValues>
            -2.1164608001708984e-01 3.9880749583244324e-01</leafValues></_>
        <_>
          <internalNodes>
            0 -1 58 1.1198043357580900e-03</internalNodes>
          <leafValues>
            1.8859648704528809e-01 -5.3601467609405518e-01</leafValues></_>
        <_>
          <internalNodes>
            0 -1 60 -1.4737791381776333e-02</internalNodes>
          <leafValues>
            -8.6312007904052734e-01 1.0097388923168182e-01</leafValues></_>
        <_>
          <internalNodes>
            0 -1 78 -2.3071686155162752e-04</internalNodes>
          <leafValues>
            3.7539353966712952e-01 -2.3585267364978790e-01</leafValues></_>
        <_>
          <internalNodes>
            0 -1 164 1.0302200680598617e-03</internalNodes>
          <leafValues>
            -1.8493866920471191e-01 5.0361168384552002e-01</leafValues></_></weakClassifiers></_>
    <!-- stage 4 -->
    <_>
      <maxWeakCount>21</maxWeakCount>
      <stageThreshold>-8.5629767179489136e-01</stageThreshold>
      <weakClassifiers>
        <_>
          <internalNodes>
            0 -1 55 -8.9584436864242889e-06</internalNodes>
          <leafValues>
            5.0783473253250122e-01 -1.1538461595773697e-01</leafValues></_>
        <_>
          <internalNodes>
            0 -1 122 5.1250046817585826e-04</internalNodes>
          <leafValues>
            -1.2901692092418671e-01 5.6751722097396851e-01</leafValues></_>
        <_>
          <internalNodes>
            0 -1 142 -1.3947200495749712e-03</internalNodes>
          <leafValues>
            4.6516358852386475e-01 -1.7709271609783173e-01</leafValues></_>
        <_>
          <internalNodes>
            0 -1 140 -6.8086362443864346e-04</internalNodes>
          <leafValues>
            3.7951186299324036e-01 -2.4195329844951630e-01</leafValues></_>
        <_>
          <internalNodes>
            0 -1 117 -4.8358814092352986e-04</internalNodes>
          <leafValues>
            4.1896796226501465e-01 -1.9516049325466156e-01</leafValues></_>
        <_>
          <internalNodes>
            0 -1 66 -1.2986193178221583e-03</internalNodes>
          <leafValues>
            -5.6710356473922729e-01 1.4883278310298920e-01</leafValues></_>
        <_>
          <internalNodes>
            0 -1 139 -4.5193338883109391e-04</internalNodes>
          <leafValues>
            4.4285655021667480e-01 -1.8618853390216827e-01</leafValues></_>
        <_>
          <internalNodes>
            0 -1 87 1.9591407850384712e-02</internalNodes>
          <leafValues>
            1.0185470432043076e-01 -7.7965903282165527e-01</leafValues></_>
        <_>
          <internalNodes>
            0 -1 44 -4.3405266478657722e-04</internalNodes>
          <leafValues>
            4.4671157002449036e-01 -1.7984752357006073e-01</leafValues></_>
        <_>
          <internalNodes>
            0 -1 44 7.1661156835034490e-04</internalNodes>
          <leafValues>
            -1.4014710485935211e-01 5.6884020566940308e-01</leafValues></_>
        <_>
          <internalNodes>
            0 -1 29 2.4634802713990211e-02</internalNodes>
          <leafValues>
            1.1053773760795593e-01 -7.6201587915420532e-01</leafValues></_>
        <_>
          <internalNodes>
            0 -1 125 9.6791609394131228e-06</internalNodes>
          <leafValues>
            -3.1763523817062378e-01 2.2256697714328766e-01</leafValues></_>
        <_>
          <internalNodes>
            0 -1 162 -1.3282352592796087e-03</internalNodes>
          <leafValues>
            4.5072954893112183e-01 -1.6520543396472931e-01</leafValues></_>
        <_>
          <internalNodes>
            0 -1 74 -8.9613571763038635e-03</internalNodes>
          <leafValues>
            -5.6378120183944702e-01 1.5098507702350616e-01</leafValues></_>
        <_>
          <internalNodes>
            0 -1 3 -3.5278898477554321e-01</internalNodes>
          <leafValues>
            7.6176947355270386e-01 -1.3792766630649567e-01</leafValues></_>
        <_>
          <internalNodes>
            0 -1 178 1.4539296971634030e-03</internalNodes>
          <leafValues>
            -1.2445574253797531e-01 5.8720117807388306e-01</leafValues></_>
        <_>
          <internalNodes>
            0 -1 128 1.2607605196535587e-02</internalNodes>
          <leafValues>
            1.0704783350229263e-01 -7.1953171491622925e-01</leafValues></_>
        <_>
          <internalNodes>
            0 -1 127 4.6525138895958662e-04</internalNodes>
          <leafValues>
            -1.6894465684890747e-01 4.5134794712066650e-01</leafValues></_>
        <_>
          <internalNodes>
            0 -1 86 -1.1386323720216751e-02</internalNodes>
          <leafValues>
            -5.6506550312042236e-01 1.1797875165939331e-01</leafValues></_>
        <_>
          <internalNodes>
            0 -1 114 7.1203252300620079e-03</internalNodes>
          <leafValues>
            1.0777430236339569e-01 -6.8893671035766602e-01</leafValues></_>
        <_>
          <internalNodes>
            0 -1 112 -5.8606103993952274e-04</internalNodes>
          <leafValues>
            3.2547071576118469e-01 -2.2437252104282379e-01</leafValues></_></weakClassifiers></_>
    <!-- stage 5 -->
    <_>
      <maxWeakCount>21</maxWeakCount>
      <stageThreshold>-8.3233147859573364e-01</stageThreshold>
      <weakClassifiers>
        <_>
          <internalNodes>
            0 -1 36 -9.0638344408944249e-04</internalNodes>
          <leafValues>
            5.4436647891998291e-01 -1.2863913550972939e-02</leafValues></_>
        <_>
          <internalNodes>
            0 -1 1 1.4186251163482666e-01</internalNodes>
          <leafValues>
            -1.0055232048034668e-01 7.0265030860900879e-01</leafValues></_>
        <_>
          <internalNodes>
            0 -1 141 6.8435966968536377e-02</internalNodes>
          <leafValues>
            -1.4582525193691254e-01 6.5339058637619019e-01</leafValues></_>
        <_>
          <internalNodes>
            0 -1 92 -1.6612550243735313e-03</internalNodes>
          <leafValues>
            -5.1715195178985596e-01 1.7093887925148010e-01</leafValues></_>
        <_>
          <internalNodes>
            0 -1 115 -9.9708675406873226e-04</internalNodes>
          <leafValues>
            4.0967068076133728e-01 -1.6915567219257355e-01</leafValues></_>
        <_>
          <internalNodes>
            0 -1 91 -1.4952553901821375e-03</internalNodes>
          <leafValues>
            4.2329469323158264e-01 -1.6966541111469269e-01</leafValues></_>
        <_>
          <internalNodes>
            0 -1 34 5.3278151899576187e-03</internalNodes>
          <leafValues>
            1.1355232447385788e-01 -6.6473317146301270e-01</leafValues></_>
        <_>
          <internalNodes>
            0 -1 170 -3.5068119177594781e-04</internalNodes>
          <leafValues>
            3.3207041025161743e-01 -2.1072554588317871e-01</leafValues></_>
        <_>
          <internalNodes>
            0 -1 38 -3.8776942528784275e-03</internalNodes>
          <leafValues>
            -7.2431433200836182e-01 9.8044365644454956e-02</leafValues></_>
        <_>
          <internalNodes>
            0 -1 132 -4.7239642590284348e-03</internalNodes>
          <leafValues>
            -6.2322229146957397e-01 8.7940454483032227e-02</leafValues></_>
        <_>
          <internalNodes>
            0 -1 160 3.9345785044133663e-03</internalNodes>
          <leafValues>
            -9.9792778491973877e-02 6.9609707593917847e-01</leafValues></_>
        <_>
          <internalNodes>
            0 -1 47 -4.1019376367330551e-02</internalNodes>
          <leafValues>
            4.9682745337486267e-01 -1.1445970088243484e-01</leafValues></_>
        <_>
          <internalNodes>
            0 -1 48 5.9438683092594147e-03</internalNodes>
          <leafValues>
            -1.2681822478771210e-01 4.9010348320007324e-01</leafValues></_>
        <_>
          <internalNodes>
            0 -1 185 -8.6352351354435086e-04</internalNodes>
          <leafValues>
            4.7829613089561462e-01 -1.2283376604318619e-01</leafValues></_>
        <_>
          <internalNodes>
            0 -1 28 1.2303438037633896e-02</internalNodes>
          <leafValues>
            1.0851450264453888e-01 -5.9402000904083252e-01</leafValues></_>
        <_>
          <internalNodes>
            0 -1 21 -1.4080531895160675e-02</internalNodes>
          <leafValues>
            -6.6869711875915527e-01 8.8590130209922791e-02</leafValues></_>
        <_>
          <internalNodes>
            0 -1 20 -4.1073337197303772e-03</internalNodes>
          <leafValues>
            2.4892801046371460e-01 -2.2158838808536530e-01</leafValues></_>
        <_>
          <internalNodes>
            0 -1 13 -1.6561849042773247e-02</internalNodes>
          <leafValues>
            6.3116091489791870e-01 -9.4827003777027130e-02</leafValues></_>
        <_>
          <internalNodes>
            0 -1 95 5.9773027896881104e-03</internalNodes>
          <leafValues>
            1.1176650971174240e-01 -5.8059608936309814e-01</leafValues></_>
        <_>
          <internalNodes>
            0 -1 67 8.7031200528144836e-03</internalNodes>
          <leafValues>
            6.5362587571144104e-02 -7.5292056798934937e-01</leafValues></_>
        <_>
          <internalNodes>
            0 -1 167 -2.2280967095866799e-04</internalNodes>
          <leafValues>
            2.5983351469039917e-01 -2.1935456991195679e-01</leafValues></_></weakClassifiers></_>
    <!-- stage 6 -->
    <_>
      <maxWeakCount>27</maxWeakCount>
      <stageThreshold>-9.7652077674865723e-01</stageThreshold>
      <weakClassifiers>
        <_>
          <internalNodes>
            0 -1 26 3.6846775561571121e-02</internalNodes>
          <leafValues>
            1.8380062282085419e-01 7.6063305139541626e-01</leafValues></_>
        <_>
          <internalNodes>
            0 -1 46 -6.6192671656608582e-02</internalNodes>
          <leafValues>
            8.0974423885345459e-01 -8.9336387813091278e-02</leafValues></_>
        <_>
          <internalNodes>
            0 -1 182 2.4156952276825905e-03</internalNodes>
          <leafValues>
            -8.5235923528671265e-02 6.6059285402297974e-01</leafValues></_>
        <_>
          <internalNodes>
            0 -1 99 1.8340631504543126e-04</internalNodes>
          <leafValues>
            -3.9830824732780457e-01 1.6936664283275604e-01</leafValues></_>
        <_>
          <internalNodes>
            0 -1 143 2.0768709946423769e-03</internalNodes>
          <leafValues>
            -1.3975894451141357e-01 4.9287542700767517e-01</leafValues></_>
        <_>
          <internalNodes>
            0 -1 107 -1.4319238252937794e-03</internalNodes>
          <leafValues>
            4.4848349690437317e-01 -1.5845873951911926e-01</leafValues></_>
        <_>
          <internalNodes>
            0 -1 107 1.5828693285584450e-03</internalNodes>
          <leafValues>
            -1.6733840107917786e-01 4.3181526660919189e-01</leafValues></_>
        <_>
          <internalNodes>
            0 -1 72 -1.5127838123589754e-03</internalNodes>
          <leafValues>
            -5.6303524971008301e-01 1.2246050685644150e-01</leafValues></_>
        <_>
          <internalNodes>
            0 -1 42 8.2281436771154404e-03</internalNodes>
          <leafValues>
            1.1192888021469116e-01 -5.4879331588745117e-01</leafValues></_>
        <_>
          <internalNodes>
            0 -1 10 2.6682985946536064e-02</internalNodes>
          <leafValues>
            -1.3925768435001373e-01 5.2268159389495850e-01</leafValues></_>
        <_>
          <internalNodes>
            0 -1 8 3.8549907505512238e-02</internalNodes>
          <leafValues>
            -1.1098267883062363e-01 6.0192567110061646e-01</leafValues></_>
        <_>
          <internalNodes>
            0 -1 137 -6.4725358970463276e-04</internalNodes>
          <leafValues>
            2.2685045003890991e-01 -2.7274700999259949e-01</leafValues></_>
        <_>
          <internalNodes>
            0 -1 138 -5.5828504264354706e-04</internalNodes>
          <leafValues>
            4.5654761791229248e-01 -1.3939540088176727e-01</leafValues></_>
        <_>
          <internalNodes>
            0 -1 41 2.0178070291876793e-02</internalNodes>
          <leafValues>
            8.5984908044338226e-02 -7.1782106161117554e-01</leafValues></_>
        <_>
          <internalNodes>
            0 -1 104 -8.1753404811024666e-04</internalNodes>
          <leafValues>
            2.6441314816474915e-01 -1.9465222954750061e-01</leafValues></_>
        <_>
          <internalNodes>
            0 -1 116 1.2337009422481060e-02</internalNodes>
          <leafValues>
            8.3748199045658112e-02 -6.9126844406127930e-01</leafValues></_>
        <_>
          <internalNodes>
            0 -1 33 3.4464797936379910e-03</internalNodes>
          <leafValues>
            6.2495570629835129e-02 -7.3823642730712891e-01</leafValues></_>
        <_>
          <internalNodes>
            0 -1 94 -6.1925768386572599e-04</internalNodes>
          <leafValues>
            2.7877712249755859e-01 -1.9378598034381866e-01</leafValues></_>
        <_>
          <internalNodes>
            0 -1 134 -8.8993068784475327e-03</internalNodes>
          <leafValues>
            -7.2104984521865845e-01 6.8128973245620728e-02</leafValues></_>
        <_>
          <internalNodes>
            0 -1 130 3.3459834754467010e-02</internalNodes>
          <leafValues>
            -1.0362545400857925e-01 5.5653679370880127e-01</leafValues></_>
        <_>
          <internalNodes>
            0 -1 109 -1.5475517138838768e-02</internalNodes>
          <leafValues>
            4.6448576450347900e-01 -1.1009462922811508e-01</leafValues></_>
        <_>
          <internalNodes>
            0 -1 100 -1.3022763654589653e-02</internalNodes>
          <leafValues>
            -8.7298494577407837e-01 6.5302334725856781e-02</leafValues></_>
        <_>
          <internalNodes>
            0 -1 165 3.3201989717781544e-03</internalNodes>
          <leafValues>
            -1.2431187927722931e-01 4.7082266211509705e-01</leafValues></_>
        <_>
          <internalNodes>
            0 -1 187 -5.4557004477828741e-04</internalNodes>
          <leafValues>
            3.6424753069877625e-01 -1.7755572497844696e-01</leafValues></_>
        <_>
          <internalNodes>
            0 -1 31 9.9668195471167564e-03</internalNodes>
          <leafValues>
            7.0242717862129211e-02 -8.2973289489746094e-01</leafValues></_>
        <_>
          <internalNodes>
            0 -1 23 4.2817806825041771e-03</internalNodes>
          <leafValues>
            5.7880964130163193e-02 -6.7306667566299438e-01</leafValues></_>
        <_>
          <internalNodes>
            0 -1 120 -8.7804131908342242e-04</internalNodes>
          <leafValues>
            3.0566054582595825e-01 -1.5509095788002014e-01</leafValues></_></weakClassifiers></_>
    <!-- stage 7 -->
    <_>
      <maxWeakCount>28</maxWeakCount>
      <stageThreshold>-8.5467720031738281e-01</stageThreshold>
      <weakClassifiers>
        <_>
          <internalNodes>
            0 -1 32 -7.3520708829164505e-03</internalNodes>
          <leafValues>
            5.9384614229202271e-01 7.2820514440536499e-02</leafValues></_>
        <_>
          <internalNodes>
            0 -1 15 1.8771411851048470e-02</internalNodes>
          <leafValues>
            -1.4071163535118103e-01 5.6400007009506226e-01</leafValues></_>
        <_>
          <internalNodes>
            0 -1 5 -3.2608732581138611e-01</internalNodes>
          <leafValues>
            7.2558242082595825e-01 -1.2898568809032440e-01</leafValues></_>
        <_>
          <internalNodes>
            0 -1 150 -4.0486862417310476e-04</internalNodes>
          <leafValues>
            4.1442981362342834e-01 -1.4662475883960724e-01</leafValues></_>
        <_>
          <internalNodes>
            0 -1 148 -9.3461206415668130e-04</internalNodes>
          <leafValues>
            4.2515990138053894e-01 -1.3580206036567688e-01</leafValues></_>
        <_>
          <internalNodes>
            0 -1 63 -6.4064473845064640e-03</internalNodes>
          <leafValues>
            -6.7496299743652344e-01 9.1763697564601898e-02</leafValues></_>
        <_>
          <internalNodes>
            0 -1 153 -9.0260012075304985e-04</internalNodes>
          <leafValues>
            3.2887223362922668e-01 -2.1549563109874725e-01</leafValues></_>
        <_>
          <internalNodes>
            0 -1 70 -1.2440895661711693e-03</internalNodes>
          <leafValues>
            -5.4405081272125244e-01 1.3077616691589355e-01</leafValues></_>
        <_>
          <internalNodes>
            0 -1 157 -4.2880512773990631e-02</internalNodes>
          <leafValues>
            5.5972123146057129e-01 -1.1641002446413040e-01</leafValues></_>
        <_>
          <internalNodes>
            0 -1 22 -5.3161219693720341e-04</internalNodes>
          <leafValues>
            3.7268263101577759e-01 -1.1497654020786285e-01</leafValues></_>
        <_>
          <internalNodes>
            0 -1 89 -5.5706442799419165e-04</internalNodes>
          <leafValues>
            1.6503217816352844e-01 -3.3861222863197327e-01</leafValues></_>
        <_>
          <internalNodes>
            0 -1 136 -7.8520867973566055e-03</internalNodes>
          <leafValues>
            -8.6577743291854858e-01 5.0042469054460526e-02</leafValues></_>
        <_>
          <internalNodes>
            0 -1 113 5.5117933079600334e-03</internalNodes>
          <leafValues>
            1.0223854333162308e-01 -4.2919614911079407e-01</leafValues></_>
        <_>
          <internalNodes>
            0 -1 188 -1.9608447328209877e-03</internalNodes>
          <leafValues>
            4.6958336234092712e-01 -1.0077798366546631e-01</leafValues></_>
        <_>
          <internalNodes>
            0 -1 111 -8.5948370397090912e-03</internalNodes>
          <leafValues>
            -5.2866470813751221e-01 9.0733684599399567e-02</leafValues></_>
        <_>
          <internalNodes>
            0 -1 25 1.6972184181213379e-02</internalNodes>
          <leafValues>
            -1.3283978402614594e-01 3.6840683221817017e-01</leafValues></_>
        <_>
          <internalNodes>
            0 -1 98 2.5097727775573730e-03</internalNodes>
          <leafValues>
            -2.0712348818778992e-01 2.4788172543048859e-01</leafValues></_>
        <_>
          <internalNodes>
            0 -1 118 -5.8458442799746990e-04</internalNodes>
          <leafValues>
            3.4143307805061340e-01 -1.2618321180343628e-01</leafValues></_>
        <_>
          <internalNodes>
            0 -1 121 -1.6527584521099925e-03</internalNodes>
          <leafValues>
            3.6595824360847473e-01 -1.2673307955265045e-01</leafValues></_>
        <_>
          <internalNodes>
            0 -1 80 -1.3748435303568840e-02</internalNodes>
          <leafValues>
            -7.3574727773666382e-01 6.9851174950599670e-02</leafValues></_>
        <_>
          <internalNodes>
            0 -1 131 -2.1226715762168169e-04</internalNodes>
          <leafValues>
            2.1656823158264160e-01 -1.9853371381759644e-01</leafValues></_>
        <_>
          <internalNodes>
            0 -1 0 5.0960993394255638e-04</internalNodes>
          <leafValues>
            9.7990281879901886e-02 -4.6259763836860657e-01</leafValues></_>
        <_>
          <internalNodes>
            0 -1 40 -5.7243026094511151e-04</internalNodes>
          <leafValues>
            2.8204953670501709e-01 -1.5686693787574768e-01</leafValues></_>
        <_>
          <internalNodes>
            0 -1 19 -1.1594022624194622e-02</internalNodes>
          <leafValues>
            4.6332186460494995e-01 -1.0269407927989960e-01</leafValues></_>
        <_>
          <internalNodes>
            0 -1 172 1.3910630717873573e-02</internalNodes>
          <leafValues>
            -1.5578758716583252e-01 2.9036608338356018e-01</leafValues></_>
        <_>
          <internalNodes>
            0 -1 69 -9.0207584435120225e-05</internalNodes>
          <leafValues>
            1.4724968373775482e-01 -3.0291548371315002e-01</leafValues></_>
        <_>
          <internalNodes>
            0 -1 76 -1.5119681134819984e-02</internalNodes>
          <leafValues>
            -6.2119746208190918e-01 6.9862164556980133e-02</leafValues></_>
        <_>
          <internalNodes>
            0 -1 152 -8.9690537424758077e-04</internalNodes>
          <leafValues>
            4.2520439624786377e-01 -1.0410783439874649e-01</leafValues></_></weakClassifiers></_>
    <!-- stage 8 -->
    <_>
      <maxWeakCount>36</maxWeakCount>
      <stageThreshold>-8.4041529893875122e-01</stageThreshold>
      <weakClassifiers>
        <_>
          <internalNodes>
            0 -1 7 2.1198980510234833e-02</internalNodes>
          <leafValues>
            2.0115774869918823e-01 6.5492957830429077e-01</leafValues></_>
        <_>
          <internalNodes>
            0 -1 45 -9.5109634101390839e-02</internalNodes>
          <leafValues>
            7.6176381111145020e-01 -5.7633828371763229e-02</leafValues></_>
        <_>
          <internalNodes>
            0 -1 77 -1.4342530630528927e-02</internalNodes>
          <leafValues>
            3.8536858558654785e-01 -1.7924469709396362e-01</leafValues></_>
        <_>
          <internalNodes>
            0 -1 52 -1.3599275844171643e-03</internalNodes>
          <leafValues>
            2.7290356159210205e-01 -1.8054601550102234e-01</leafValues></_>
        <_>
          <internalNodes>
            0 -1 171 -9.0036378242075443e-04</internalNodes>
          <leafValues>
            3.8190916180610657e-01 -1.4740717411041260e-01</leafValues></_>
        <_>
          <internalNodes>
            0 -1 124 1.4513902366161346e-02</internalNodes>
          <leafValues>
            -1.1721713095903397e-01 3.8595446944236755e-01</leafValues></_>
        <_>
          <internalNodes>
            0 -1 51 -8.4861041978001595e-04</internalNodes>
          <leafValues>
            4.1380918025970459e-01 -1.0670480877161026e-01</leafValues></_>
        <_>
          <internalNodes>
            0 -1 54 -1.9625352695584297e-02</internalNodes>
          <leafValues>
            -7.6566696166992188e-01 6.1901975423097610e-02</leafValues></_>
        <_>
          <internalNodes>
            0 -1 103 -1.2638689950108528e-03</internalNodes>
          <leafValues>
            -5.1783108711242676e-01 9.1426134109497070e-02</leafValues></_>
        <_>
          <internalNodes>
            0 -1 173 1.0276286629959941e-03</internalNodes>
          <leafValues>
            -1.3369429111480713e-01 3.7585356831550598e-01</leafValues></_>
        <_>
          <internalNodes>
            0 -1 106 -1.1005481937900186e-03</internalNodes>
          <leafValues>
            3.6814737319946289e-01 -1.3966782391071320e-01</leafValues></_>
        <_>
          <internalNodes>
            0 -1 119 1.8392580095678568e-03</internalNodes>
          <leafValues>
            -9.0523950755596161e-02 4.6488916873931885e-01</leafValues></_>
        <_>
          <internalNodes>
            0 -1 135 -4.3297084048390388e-03</internalNodes>
          <leafValues>
            -4.6122327446937561e-01 9.4751603901386261e-02</leafValues></_>
        <_>
          <internalNodes>
            0 -1 12 -5.0457398174330592e-04</internalNodes>
          <leafValues>
            -3.6843204498291016e-01 1.1701405048370361e-01</leafValues></_>
        <_>
          <internalNodes>
            0 -1 174 3.5556644434109330e-04</internalNodes>
          <leafValues>
            -1.4523108303546906e-01 3.1269598007202148e-01</leafValues></_>
        <_>
          <internalNodes>
            0 -1 133 1.1011678725481033e-02</internalNodes>
          <leafValues>
            7.4810639023780823e-02 -6.9176632165908813e-01</leafValues></_>
        <_>
          <internalNodes>
            0 -1 184 -1.4223675243556499e-03</internalNodes>
          <leafValues>
            3.8358411192893982e-01 -1.1811144649982452e-01</leafValues></_>
        <_>
          <internalNodes>
            0 -1 169 -1.8455667886883020e-03</internalNodes>
          <leafValues>
            4.1218122839927673e-01 -1.0078653693199158e-01</leafValues></_>
        <_>
          <internalNodes>
            0 -1 181 -8.3660852396860719e-04</internalNodes>
          <leafValues>
            2.7842423319816589e-01 -1.7757360637187958e-01</leafValues></_>
        <_>
          <internalNodes>
            0 -1 96 1.7565672751516104e-03</internalNodes>
          <leafValues>
            6.7072756588459015e-02 -7.1078193187713623e-01</leafValues></_>
        <_>
          <internalNodes>
            0 -1 59 6.3136750832200050e-03</internalNodes>
          <leafValues>
            5.7624358683824539e-02 -6.4771783351898193e-01</leafValues></_>
        <_>
          <internalNodes>
            0 -1 179 -1.7973211361095309e-03</internalNodes>
          <leafValues>
            3.3969941735267639e-01 -1.3026899099349976e-01</leafValues></_>
        <_>
          <internalNodes>
            0 -1 177 -1.4369291020557284e-03</internalNodes>
          <leafValues>
            3.3187270164489746e-01 -1.5135376155376434e-01</leafValues></_>
        <_>
          <internalNodes>
            0 -1 110 6.1940373852849007e-03</internalNodes>
          <leafValues>
            -2.1877843141555786e-01 2.0085524022579193e-01</leafValues></_>
        <_>
          <internalNodes>
            0 -1 101 -8.1315059214830399e-03</internalNodes>
          <leafValues>
            -6.5825533866882324e-01 6.6486343741416931e-02</leafValues></_>
        <_>
          <internalNodes>
            0 -1 65 5.9364404296502471e-04</internalNodes>
          <leafValues>
            6.5492697060108185e-02 -5.7109707593917847e-01</leafValues></_>
        <_>
          <internalNodes>
            0 -1 43 -2.8326429310254753e-04</internalNodes>
          <leafValues>
            2.4883419275283813e-01 -1.5257084369659424e-01</leafValues></_>
        <_>
          <internalNodes>
            0 -1 194 4.2735997703857720e-04</internalNodes>
          <leafValues>
            9.5890469849109650e-02 -4.2950910329818726e-01</leafValues></_>
        <_>
          <internalNodes>
            0 -1 129 -1.1409712024033070e-03</internalNodes>
          <leafValues>
            2.5665652751922607e-01 -1.5487168729305267e-01</leafValues></_>
        <_>
          <internalNodes>
            0 -1 82 2.2764303721487522e-03</internalNodes>
          <leafValues>
            -7.2959341108798981e-02 5.3674978017807007e-01</leafValues></_>
        <_>
          <internalNodes>
            0 -1 161 1.5537712723016739e-02</internalNodes>
          <leafValues>
            -9.9783256649971008e-02 4.0392282605171204e-01</leafValues></_>
        <_>
          <internalNodes>
            0 -1 156 -5.3026631474494934e-02</internalNodes>
          <leafValues>
            4.5289838314056396e-01 -1.0514582693576813e-01</leafValues></_>
        <_>
          <internalNodes>
            0 -1 30 -2.4882197380065918e-02</internalNodes>
          <leafValues>
            -4.7649613022804260e-01 8.9253716170787811e-02</leafValues></_>
        <_>
          <internalNodes>
            0 -1 73 1.2763382866978645e-02</internalNodes>
          <leafValues>
            7.2015635669231415e-02 -6.0129207372665405e-01</leafValues></_>
        <_>
          <internalNodes>
            0 -1 36 -8.2492618821561337e-04</internalNodes>
          <leafValues>
            1.7088598012924194e-01 -2.8071475028991699e-01</leafValues></_>
        <_>
          <internalNodes>
            0 -1 75 -1.3272424694150686e-03</internalNodes>
          <leafValues>
            2.7201452851295471e-01 -2.0041750371456146e-01</leafValues></_></weakClassifiers></_>
    <!-- stage 9 -->
    <_>
      <maxWeakCount>36</maxWeakCount>
      <stageThreshold>-7.6107376813888550e-01</stageThreshold>
      <weakClassifiers>
        <_>
          <internalNodes>
            0 -1 6 6.4184419810771942e-02</internalNodes>
          <leafValues>
            2.4165886640548706e-01 7.5757575035095215e-01</leafValues></_>
        <_>
          <internalNodes>
            0 -1 27 -6.4536280930042267e-02</internalNodes>
          <leafValues>
            7.8401327133178711e-01 -4.2306251823902130e-02</leafValues></_>
        <_>
          <internalNodes>
            0 -1 97 -1.0368557414039969e-03</internalNodes>
          <leafValues>
            -5.2167433500289917e-01 8.3331376314163208e-02</leafValues></_>
        <_>
          <internalNodes>
            0 -1 39 8.9826229959726334e-03</internalNodes>
          <leafValues>
            1.2513318657875061e-01 -4.7953778505325317e-01</leafValues></_>
        <_>
          <internalNodes>
            0 -1 83 1.7405285034328699e-03</internalNodes>
          <leafValues>
            -1.3476942479610443e-01 3.6210897564888000e-01</leafValues></_>
        <_>
          <internalNodes>
            0 -1 108 -1.0881392518058419e-03</internalNodes>
          <leafValues>
            3.1743106245994568e-01 -1.6902208328247070e-01</leafValues></_>
        <_>
          <internalNodes>
            0 -1 163 1.0521006770431995e-03</internalNodes>
          <leafValues>
            -1.2427963316440582e-01 3.3446595072746277e-01</leafValues></_>
        <_>
          <internalNodes>
            0 -1 146 2.1426770836114883e-03</internalNodes>
          <leafValues>
            -1.2701591849327087e-01 4.2246261239051819e-01</leafValues></_>
        <_>
          <internalNodes>
            0 -1 144 -5.8411629870533943e-03</internalNodes>
          <leafValues>
            -6.3726478815078735e-01 7.5906343758106232e-02</leafValues></_>
        <_>
          <internalNodes>
            0 -1 11 -2.5062790140509605e-02</internalNodes>
          <leafValues>
            7.1873664855957031e-01 -5.9978045523166656e-02</leafValues></_>
        <_>
          <internalNodes>
            0 -1 53 9.7134998068213463e-03</internalNodes>
          <leafValues>
            7.5768858194351196e-02 -6.6423714160919189e-01</leafValues></_>
        <_>
          <internalNodes>
            0 -1 62 -5.9179384261369705e-03</internalNodes>
          <leafValues>
            2.3212549090385437e-01 -1.6064700484275818e-01</leafValues></_>
        <_>
          <internalNodes>
            0 -1 187 -2.0914754713885486e-04</internalNodes>
          <leafValues>
            2.0024245977401733e-01 -1.8580639362335205e-01</leafValues></_>
        <_>
          <internalNodes>
            0 -1 186 -4.6337919775396585e-04</internalNodes>
          <leafValues>
            2.9637339711189270e-01 -1.4104551076889038e-01</leafValues></_>
        <_>
          <internalNodes>
            0 -1 145 -1.0577913373708725e-02</internalNodes>
          <leafValues>
            -6.6955536603927612e-01 7.2767555713653564e-02</leafValues></_>
        <_>
          <internalNodes>
            0 -1 16 4.1444879025220871e-04</internalNodes>
          <leafValues>
            9.2959508299827576e-02 -4.1810715198516846e-01</leafValues></_>
        <_>
          <internalNodes>
            0 -1 150 -5.1388295833021402e-04</internalNodes>
          <leafValues>
            3.2233449816703796e-01 -1.2814347445964813e-01</leafValues></_>
        <_>
          <internalNodes>
            0 -1 56 -3.1765317544341087e-05</internalNodes>
          <leafValues>
            1.2153513729572296e-01 -3.7307512760162354e-01</leafValues></_>
        <_>
          <internalNodes>
            0 -1 49 3.4497141838073730e-02</internalNodes>
          <leafValues>
            -5.4560635238885880e-02 8.0276906490325928e-01</leafValues></_>
        <_>
          <internalNodes>
            0 -1 71 3.4807296469807625e-04</internalNodes>
          <leafValues>
            -2.1490696072578430e-01 1.9942209124565125e-01</leafValues></_>
        <_>
          <internalNodes>
            0 -1 88 -2.2873363923281431e-04</internalNodes>
          <leafValues>
            2.6097267866134644e-01 -1.4789110422134399e-01</leafValues></_>
        <_>
          <internalNodes>
            0 -1 17 -2.2128261625766754e-02</internalNodes>
          <leafValues>
            -4.3357944488525391e-01 8.9588150382041931e-02</leafValues></_>
        <_>
          <internalNodes>
            0 -1 193 5.1277864258736372e-04</internalNodes>
          <leafValues>
            1.3109509646892548e-01 -3.1898951530456543e-01</leafValues></_>
        <_>
          <internalNodes>
            0 -1 68 -2.3364012304227799e-04</internalNodes>
          <leafValues>
            2.4041445553302765e-01 -1.6572009027004242e-01</leafValues></_>
        <_>
          <internalNodes>
            0 -1 64 -8.7180426344275475e-03</internalNodes>
          <leafValues>
            -8.1095820665359497e-01 5.5464860051870346e-02</leafValues></_>
        <_>
          <internalNodes>
            0 -1 9 4.4354077544994652e-04</internalNodes>
          <leafValues>
            7.8309185802936554e-02 -4.2411205172538757e-01</leafValues></_>
        <_>
          <internalNodes>
            0 -1 18 2.8137950226664543e-02</internalNodes>
          <leafValues>
            -1.0745244473218918e-01 3.3543261885643005e-01</leafValues></_>
        <_>
          <internalNodes>
            0 -1 2 -3.0845433473587036e-02</internalNodes>
          <leafValues>
            4.2155754566192627e-01 -9.8230041563510895e-02</leafValues></_>
        <_>
          <internalNodes>
            0 -1 24 -3.6919370759278536e-03</internalNodes>
          <leafValues>
            -4.3970087170600891e-01 9.1088302433490753e-02</leafValues></_>
        <_>
          <internalNodes>
            0 -1 68 6.5093429293483496e-04</internalNodes>
          <leafValues>
            -1.1052439361810684e-01 3.5926988720893860e-01</leafValues></_>
        <_>
          <internalNodes>
            0 -1 37 2.6711043901741505e-03</internalNodes>
          <leafValues>
            8.2040362060070038e-02 -5.6139898300170898e-01</leafValues></_>
        <_>
          <internalNodes>
            0 -1 102 -4.0792411891743541e-04</internalNodes>
          <leafValues>
            3.0081987380981445e-01 -1.3433274626731873e-01</leafValues></_>
        <_>
          <internalNodes>
            0 -1 149 -3.4927134402096272e-04</internalNodes>
          <leafValues>
            2.5341233611106873e-01 -1.5377439558506012e-01</leafValues></_>
        <_>
          <internalNodes>
            0 -1 151 -4.9441342707723379e-04</internalNodes>
          <leafValues>
            3.3228588104248047e-01 -1.3751144707202911e-01</leafValues></_>
        <_>
          <internalNodes>
            0 -1 192 4.0358200203627348e-04</internalNodes>
          <leafValues>
            1.0940124094486237e-01 -3.8322579860687256e-01</leafValues></_>
        <_>
          <internalNodes>
            0 -1 191 7.3853891808539629e-04</internalNodes>
          <leafValues>
            1.0640415549278259e-01 -3.7574869394302368e-01</leafValues></_></weakClassifiers></_></stages>
  <features>
    <_>
      <rects>
        <_>
          0 3 2 2 -1.</_>
        <_>
          0 3 1 1 2.</_>
        <_>
          1 4 1 1 2.</_></rects>
      <tilted>0</tilted></_>
    <_>
      <rects>
        <_>
          0 13 30 8 -1.</_>
        <_>
          10 13 10 8 3.</_></rects>
      <tilted>0</tilted></_>
    <_>
      <rects>
        <_>
          2 3 18 8 -1.</_>
        <_>
          2 3 9 4 2.</_>
        <_>
          11 7 9 4 2.</_></rects>
      <tilted>0</tilted></_>
    <_>
      <rects>
        <_>
          3 6 27 17 -1.</_>
        <_>
          12 6 9 17 3.</_></rects>
      <tilted>0</tilted></_>
    <_>
      <rects>
        <_>
          3 18 24 4 -1.</_>
        <_>
          11 18 8 4 3.</_></rects>
      <tilted>0</tilted></_>
    <_>
      <rects>
        <_>
          4 7 24 17 -1.</_>
        <_>
          12 7 8 17 3.</_></rects>
      <tilted>0</tilted></_>
    <_>
      <rects>
        <_>
          4 16 21 5 -1.</_>
        <_>
          11 16 7 5 3.</_></rects>
      <tilted>0</tilted></_>
    <_>
      <rects>
        <_>
          5 13 8 7 -1.</_>
        <_>
          9 13 4 7 2.</_></rects>
      <tilted>0</tilted></_>
    <_>
      <rects>
        <_>
          5 15 10 14 -1.</_>
        <_>
          5 15 5 7 2.</_>
        <_>
          10 22 5 7 2.</_></rects>
      <tilted>0</tilted></_>
    <_>
      <rects>
        <_>
          5 28 2 2 -1.</_>
        <_>
          5 28 1 1 2.</_>
        <_>
          6 29 1 1 2.</_></rects>
      <tilted>0</tilted></_>
    <_>
      <rects>
        <_>
          6 11 8 7 -1.</_>
        <_>
          10 11 4 7 2.</_></rects>
      <tilted>0</tilted></_>
    <_>
      <rects>
        <_>
          6 19 21 1 -1.</_>
        <_>
          13 19 7 1 3.</_></rects>
      <tilted>0</tilted></_>
    <_>
      <rects>
        <_>
          6 20 3 1 -1.</_>
        <_>
          7 20 1 1 3.</_></rects>
      <tilted>0</tilted></_>
    <_>
      <rects>
        <_>
          7 11 6 9 -1.</_>
        <_>
          9 11 2 9 3.</_></rects>
      <tilted>0</tilted></_>
    <_>
      <rects>
        <_>
          7 11 6 11 -1.</_>
        <_>
          10 11 3 11 2.</_></rects>
      <tilted>0</tilted></_>
    <_>
      <rects>
        <_>
          7 12 9 6 -1.</_>
        <_>
          10 12 3 6 3.</_></rects>
      <tilted>0</tilted></_>
    <_>
      <rects>
        <_>
          8 9 2 2 -1.</_>
        <_>
          8 9 1 1 2.</_>
        <_>
          9 10 1 1 2.</_></rects>
      <tilted>0</tilted></_>
    <_>
      <rects>
        <_>
          8 12 15 3 -1.</_>
        <_>
          13 12 5 3 3.</_></rects>
      <tilted>0</tilted></_>
    <_>
      <rects>
        <_>
          9 6 4 18 -1.</_>
        <_>
          9 12 4 6 3.</_></rects>
      <tilted>0</tilted></_>
    <_>
      <rects>
        <_>
          9 8 10 8 -1.</_>
        <_>
          9 8 5 4 2.</_>
        <_>
          14 12 5 4 2.</_></rects>
      <tilted>0</tilted></_>
    <_>
      <rects>
        <_>
          9 13 4 4 -1.</_>
        <_>
          11 13 2 4 2.</_></rects>
      <tilted>0</tilted></_>
    <_>
      <rects>
        <_>
          9 13 12 4 -1.</_>
        <_>
          15 13 6 4 2.</_></rects>
      <tilted>0</tilted></_>
    <_>
      <rects>
        <_>
          9 14 3 1 -1.</_>
        <_>
          10 14 1 1 3.</_></rects>
      <tilted>0</tilted></_>
    <_>
      <rects>
        <_>
          9 14 5 4 -1.</_>
        <_>
          9 16 5 2 2.</_></rects>
      <tilted>0</tilted></_>
    <_>
      <rects>
        <_>
          9 15 7 4 -1.</_>
        <_>
          9 17 7 2 2.</_></rects>
      <tilted>0</tilted></_>
    <_>
      <rects>
        <_>
          9 20 11 6 -1.</_>
        <_>
          9 23 11 3 2.</_></rects>
      <tilted>0</tilted></_>
    <_>
      <rects>
        <_>
          10 4 3 24 -1.</_>
        <_>
          10 12 3 8 3.</_></rects>
      <tilted>0</tilted></_>
    <_>
      <rects>
        <_>
          10 5 3 21 -1.</_>
        <_>
          10 12 3 7 3.</_></rects>
      <tilted>0</tilted></_>
    <_>
      <rects>
        <_>
          10 10 8 6 -1.</_>
        <_>
          14 10 4 6 2.</_></rects>
      <tilted>0</tilted></_>
    <_>
      <rects>
        <_>
          10 12 12 5 -1.</_>
        <_>
          14 12 4 5 3.</_></rects>
      <tilted>0</tilted></_>
    <_>
      <rects>
        <_>
          10 12 12 7 -1.</_>
        <_>
          14 12 4 7 3.</_></rects>
      <tilted>0</tilted></_>
    <_>
      <rects>
        <_>
          10 12 8 6 -1.</_>
        <_>
          10 14 8 2 3.</_></rects>
      <tilted>0</tilted></_>
    <_>
      <rects>
        <_>
          10 13 6 6 -1.</_>
        <_>
          12 13 2 6 3.</_></rects>
      <tilted>0</tilted></_>
    <_>
      <rects>
        <_>
          10 13 5 4 -1.</_>
        <_>
          10 15 5 2 2.</_></rects>
      <tilted>0</tilted></_>
    <_>
      <rects>
        <_>
          10 13 5 6 -1.</_>
        <_>
          10 16 5 3 2.</_></rects>
      <tilted>0</tilted></_>
    <_>
      <rects>
        <_>
          10 13 10 8 -1.</_>
        <_>
          10 17 10 4 2.</_></rects>
      <tilted>0</tilted></_>
    <_>
      <rects>
        <_>
          10 14 2 4 -1.</_>
        <_>
          11 14 1 4 2.</_></rects>
      <tilted>0</tilted></_>
    <_>
      <rects>
        <_>
          10 14 3 4 -1.</_>
        <_>
          10 16 3 2 2.</_></rects>
      <tilted>0</tilted></_>
    <_>
      <rects>
        <_>
          10 14 4 4 -1.</_>
        <_>
          10 16 4 2 2.</_></rects>
      <tilted>0</tilted></_>
    <_>
      <rects>
        <_>
          10 14 9 8 -1.</_>
        <_>
          10 18 9 4 2.</_></rects>
      <tilted>0</tilted></_>
    <_>
      <rects>
        <_>
          10 15 3 1 -1.</_>
        <_>
          11 15 1 1 3.</_></rects>
      <tilted>0</tilted></_>
    <_>
      <rects>
        <_>
          10 15 12 4 -1.</_>
        <_>
          14 15 4 4 3.</_></rects>
      <tilted>0</tilted></_>
    <_>
      <rects>
        <_>
          10 15 10 6 -1.</_>
        <_>
          10 18 10 3 2.</_></rects>
      <tilted>0</tilted></_>
    <_>
      <rects>
        <_>
          10 17 2 2 -1.</_>
        <_>
          10 17 1 1 2.</_>
        <_>
          11 18 1 1 2.</_></rects>
      <tilted>0</tilted></_>
    <_>
      <rects>
        <_>
          10 18 2 2 -1.</_>
        <_>
          10 18 1 1 2.</_>
        <_>
          11 19 1 1 2.</_></rects>
      <tilted>0</tilted></_>
    <_>
      <rects>
        <_>
          11 0 3 30 -1.</_>
        <_>
          11 10 3 10 3.</_></rects>
      <tilted>0</tilted></_>
    <_>
      <rects>
        <_>
          11 2 3 27 -1.</_>
        <_>
          11 11 3 9 3.</_></rects>
      <tilted>0</tilted></_>
    <_>
      <rects>
        <_>
          11 2 11 10 -1.</_>
        <_>
          11 7 11 5 2.</_></rects>
      <tilted>0</tilted></_>
    <_>
      <rects>
        <_>
          11 5 1 12 -1.</_>
        <_>
          11 11 1 6 2.</_></rects>
      <tilted>0</tilted></_>
    <_>
      <rects>
        <_>
          11 7 2 18 -1.</_>
        <_>
          11 13 2 6 3.</_></rects>
      <tilted>0</tilted></_>
    <_>
      <rects>
        <_>
          11 9 8 8 -1.</_>
        <_>
          15 9 4 8 2.</_></rects>
      <tilted>0</tilted></_>
    <_>
      <rects>
        <_>
          11 11 2 2 -1.</_>
        <_>
          11 11 1 1 2.</_>
        <_>
          12 12 1 1 2.</_></rects>
      <tilted>0</tilted></_>
    <_>
      <rects>
        <_>
          11 11 2 4 -1.</_>
        <_>
          11 13 2 2 2.</_></rects>
      <tilted>0</tilted></_>
    <_>
      <rects>
        <_>
          11 11 8 4 -1.</_>
        <_>
          15 11 4 4 2.</_></rects>
      <tilted>0</tilted></_>
    <_>
      <rects>
        <_>
          11 11 5 9 -1.</_>
        <_>
          11 14 5 3 3.</_></rects>
      <tilted>0</tilted></_>
    <_>
      <rects>
        <_>
          11 12 2 7 -1.</_>
        <_>
          12 12 1 7 2.</_></rects>
      <tilted>0</tilted></_>
    <_>
      <rects>
        <_>
          11 12 2 4 -1.</_>
        <_>
          11 14 2 2 2.</_></rects>
      <tilted>0</tilted></_>
    <_>
      <rects>
        <_>
          11 12 2 6 -1.</_>
        <_>
          11 14 2 2 3.</_></rects>
      <tilted>0</tilted></_>
    <_>
      <rects>
        <_>
          11 12 2 6 -1.</_>
        <_>
          11 15 2 3 2.</_></rects>
      <tilted>0</tilted></_>
    <_>
      <rects>
        <_>
          11 12 6 6 -1.</_>
        <_>
          11 14 6 2 3.</_></rects>
      <tilted>0</tilted></_>
    <_>
      <rects>
        <_>
          11 12 6 8 -1.</_>
        <_>
          11 16 6 4 2.</_></rects>
      <tilted>0</tilted></_>
    <_>
      <rects>
        <_>
          11 13 2 5 -1.</_>
        <_>
          12 13 1 5 2.</_></rects>
      <tilted>0</tilted></_>
    <_>
      <rects>
        <_>
          11 13 6 5 -1.</_>
        <_>
          13 13 2 5 3.</_></rects>
      <tilted>0</tilted></_>
    <_>
      <rects>
        <_>
          11 13 3 6 -1.</_>
        <_>
          11 15 3 2 3.</_></rects>
      <tilted>0</tilted></_>
    <_>
      <rects>
        <_>
          11 13 7 4 -1.</_>
        <_>
          11 15 7 2 2.</_></rects>
      <tilted>0</tilted></_>
    <_>
      <rects>
        <_>
          11 14 2 1 -1.</_>
        <_>
          12 14 1 1 2.</_></rects>
      <tilted>0</tilted></_>
    <_>
      <rects>
        <_>
          11 14 2 4 -1.</_>
        <_>
          11 16 2 2 2.</_></rects>
      <tilted>0</tilted></_>
    <_>
      <rects>
        <_>
          11 14 8 6 -1.</_>
        <_>
          11 14 4 3 2.</_>
        <_>
          15 17 4 3 2.</_></rects>
      <tilted>0</tilted></_>
    <_>
      <rects>
        <_>
          11 15 1 3 -1.</_>
        <_>
          11 16 1 1 3.</_></rects>
      <tilted>0</tilted></_>
    <_>
      <rects>
        <_>
          11 15 2 3 -1.</_>
        <_>
          12 15 1 3 2.</_></rects>
      <tilted>0</tilted></_>
    <_>
      <rects>
        <_>
          11 15 2 4 -1.</_>
        <_>
          11 17 2 2 2.</_></rects>
      <tilted>0</tilted></_>
    <_>
      <rects>
        <_>
          11 15 2 8 -1.</_>
        <_>
          11 19 2 4 2.</_></rects>
      <tilted>0</tilted></_>
    <_>
      <rects>
        <_>
          11 15 3 4 -1.</_>
        <_>
          11 17 3 2 2.</_></rects>
      <tilted>0</tilted></_>
    <_>
      <rects>
        <_>
          11 15 12 2 -1.</_>
        <_>
          15 15 4 2 3.</_></rects>
      <tilted>0</tilted></_>
    <_>
      <rects>
        <_>
          11 15 12 3 -1.</_>
        <_>
          15 15 4 3 3.</_></rects>
      <tilted>0</tilted></_>
    <_>
      <rects>
        <_>
          11 16 4 2 -1.</_>
        <_>
          13 16 2 2 2.</_></rects>
      <tilted>0</tilted></_>
    <_>
      <rects>
        <_>
          11 16 9 5 -1.</_>
        <_>
          14 16 3 5 3.</_></rects>
      <tilted>0</tilted></_>
    <_>
      <rects>
        <_>
          11 16 3 12 -1.</_>
        <_>
          11 22 3 6 2.</_></rects>
      <tilted>0</tilted></_>
    <_>
      <rects>
        <_>
          11 17 1 3 -1.</_>
        <_>
          11 18 1 1 3.</_></rects>
      <tilted>0</tilted></_>
    <_>
      <rects>
        <_>
          11 17 2 2 -1.</_>
        <_>
          11 17 1 1 2.</_>
        <_>
          12 18 1 1 2.</_></rects>
      <tilted>0</tilted></_>
    <_>
      <rects>
        <_>
          11 17 9 4 -1.</_>
        <_>
          11 19 9 2 2.</_></rects>
      <tilted>0</tilted></_>
    <_>
      <rects>
        <_>
          11 18 3 3 -1.</_>
        <_>
          11 19 3 1 3.</_></rects>
      <tilted>0</tilted></_>
    <_>
      <rects>
        <_>
          11 19 4 2 -1.</_>
        <_>
          11 19 2 1 2.</_>
        <_>
          13 20 2 1 2.</_></rects>
      <tilted>0</tilted></_>
    <_>
      <rects>
        <_>
          11 19 4 3 -1.</_>
        <_>
          11 20 4 1 3.</_></rects>
      <tilted>0</tilted></_>
    <_>
      <rects>
        <_>
          12 8 8 12 -1.</_>
        <_>
          16 8 4 12 2.</_></rects>
      <tilted>0</tilted></_>
    <_>
      <rects>
        <_>
          12 10 4 3 -1.</_>
        <_>
          12 11 4 1 3.</_></rects>
      <tilted>0</tilted></_>
    <_>
      <rects>
        <_>
          12 10 5 8 -1.</_>
        <_>
          12 14 5 4 2.</_></rects>
      <tilted>0</tilted></_>
    <_>
      <rects>
        <_>
          12 10 7 12 -1.</_>
        <_>
          12 16 7 6 2.</_></rects>
      <tilted>0</tilted></_>
    <_>
      <rects>
        <_>
          12 11 1 3 -1.</_>
        <_>
          12 12 1 1 3.</_></rects>
      <tilted>0</tilted></_>
    <_>
      <rects>
        <_>
          12 11 2 4 -1.</_>
        <_>
          12 13 2 2 2.</_></rects>
      <tilted>0</tilted></_>
    <_>
      <rects>
        <_>
          12 11 2 9 -1.</_>
        <_>
          12 14 2 3 3.</_></rects>
      <tilted>0</tilted></_>
    <_>
      <rects>
        <_>
          12 11 4 3 -1.</_>
        <_>
          12 12 4 1 3.</_></rects>
      <tilted>0</tilted></_>
    <_>
      <rects>
        <_>
          12 11 8 6 -1.</_>
        <_>
          12 11 4 3 2.</_>
        <_>
          16 14 4 3 2.</_></rects>
      <tilted>0</tilted></_>
    <_>
      <rects>
        <_>
          12 11 5 8 -1.</_>
        <_>
          12 15 5 4 2.</_></rects>
      <tilted>0</tilted></_>
    <_>
      <rects>
        <_>
          12 12 6 3 -1.</_>
        <_>
          12 13 6 1 3.</_></rects>
      <tilted>0</tilted></_>
    <_>
      <rects>
        <_>
          12 13 8 2 -1.</_>
        <_>
          16 13 4 2 2.</_></rects>
      <tilted>0</tilted></_>
    <_>
      <rects>
        <_>
          12 14 1 4 -1.</_>
        <_>
          12 16 1 2 2.</_></rects>
      <tilted>0</tilted></_>
    <_>
      <rects>
        <_>
          12 14 2 6 -1.</_>
        <_>
          12 17 2 3 2.</_></rects>
      <tilted>0</tilted></_>
    <_>
      <rects>
        <_>
          12 14 3 12 -1.</_>
        <_>
          12 18 3 4 3.</_></rects>
      <tilted>0</tilted></_>
    <_>
      <rects>
        <_>
          12 14 6 5 -1.</_>
        <_>
          15 14 3 5 2.</_></rects>
      <tilted>0</tilted></_>
    <_>
      <rects>
        <_>
          12 14 6 7 -1.</_>
        <_>
          15 14 3 7 2.</_></rects>
      <tilted>0</tilted></_>
    <_>
      <rects>
        <_>
          12 15 6 6 -1.</_>
        <_>
          15 15 3 6 2.</_></rects>
      <tilted>0</tilted></_>
    <_>
      <rects>
        <_>
          12 16 2 2 -1.</_>
        <_>
          12 16 1 1 2.</_>
        <_>
          13 17 1 1 2.</_></rects>
      <tilted>0</tilted></_>
    <_>
      <rects>
        <_>
          12 16 2 4 -1.</_>
        <_>
          12 18 2 2 2.</_></rects>
      <tilted>0</tilted></_>
    <_>
      <rects>
        <_>
          12 16 5 3 -1.</_>
        <_>
          12 17 5 1 3.</_></rects>
      <tilted>0</tilted></_>
    <_>
      <rects>
        <_>
          12 17 2 3 -1.</_>
        <_>
          12 18 2 1 3.</_></rects>
      <tilted>0</tilted></_>
    <_>
      <rects>
        <_>
          12 18 2 3 -1.</_>
        <_>
          12 19 2 1 3.</_></rects>
      <tilted>0</tilted></_>
    <_>
      <rects>
        <_>
          12 18 3 3 -1.</_>
        <_>
          12 19 3 1 3.</_></rects>
      <tilted>0</tilted></_>
    <_>
      <rects>
        <_>
          12 19 3 3 -1.</_>
        <_>
          12 20 3 1 3.</_></rects>
      <tilted>0</tilted></_>
    <_>
      <rects>
        <_>
          12 19 6 8 -1.</_>
        <_>
          12 23 6 4 2.</_></rects>
      <tilted>0</tilted></_>
    <_>
      <rects>
        <_>
          13 6 10 15 -1.</_>
        <_>
          13 11 10 5 3.</_></rects>
      <tilted>0</tilted></_>
    <_>
      <rects>
        <_>
          13 9 6 4 -1.</_>
        <_>
          16 9 3 4 2.</_></rects>
      <tilted>0</tilted></_>
    <_>
      <rects>
        <_>
          13 11 3 3 -1.</_>
        <_>
          13 12 3 1 3.</_></rects>
      <tilted>0</tilted></_>
    <_>
      <rects>
        <_>
          13 11 3 12 -1.</_>
        <_>
          13 17 3 6 2.</_></rects>
      <tilted>0</tilted></_>
    <_>
      <rects>
        <_>
          13 11 5 6 -1.</_>
        <_>
          13 14 5 3 2.</_></rects>
      <tilted>0</tilted></_>
    <_>
      <rects>
        <_>
          13 12 3 3 -1.</_>
        <_>
          13 13 3 1 3.</_></rects>
      <tilted>0</tilted></_>
    <_>
      <rects>
        <_>
          13 15 6 6 -1.</_>
        <_>
          16 15 3 6 2.</_></rects>
      <tilted>0</tilted></_>
    <_>
      <rects>
        <_>
          13 16 1 3 -1.</_>
        <_>
          13 17 1 1 3.</_></rects>
      <tilted>0</tilted></_>
    <_>
      <rects>
        <_>
          13 18 1 3 -1.</_>
        <_>
          13 19 1 1 3.</_></rects>
      <tilted>0</tilted></_>
    <_>
      <rects>
        <_>
          13 18 2 3 -1.</_>
        <_>
          13 19 2 1 3.</_></rects>
      <tilted>0</tilted></_>
    <_>
      <rects>
        <_>
          13 18 3 3 -1.</_>
        <_>
          13 19 3 1 3.</_></rects>
      <tilted>0</tilted></_>
    <_>
      <rects>
        <_>
          13 19 3 3 -1.</_>
        <_>
          13 20 3 1 3.</_></rects>
      <tilted>0</tilted></_>
    <_>
      <rects>
        <_>
          13 21 2 2 -1.</_>
        <_>
          13 21 1 1 2.</_>
        <_>
          14 22 1 1 2.</_></rects>
      <tilted>0</tilted></_>
    <_>
      <rects>
        <_>
          14 9 4 10 -1.</_>
        <_>
          14 14 4 5 2.</_></rects>
      <tilted>0</tilted></_>
    <_>
      <rects>
        <_>
          14 19 12 2 -1.</_>
        <_>
          20 19 6 2 2.</_></rects>
      <tilted>0</tilted></_>
    <_>
      <rects>
        <_>
          15 8 1 4 -1.</_>
        <_>
          15 10 1 2 2.</_></rects>
      <tilted>0</tilted></_>
    <_>
      <rects>
        <_>
          15 8 4 10 -1.</_>
        <_>
          15 13 4 5 2.</_></rects>
      <tilted>0</tilted></_>
    <_>
      <rects>
        <_>
          15 9 2 2 -1.</_>
        <_>
          15 9 1 1 2.</_>
        <_>
          16 10 1 1 2.</_></rects>
      <tilted>0</tilted></_>
    <_>
      <rects>
        <_>
          15 9 6 6 -1.</_>
        <_>
          15 12 6 3 2.</_></rects>
      <tilted>0</tilted></_>
    <_>
      <rects>
        <_>
          15 12 5 3 -1.</_>
        <_>
          15 13 5 1 3.</_></rects>
      <tilted>0</tilted></_>
    <_>
      <rects>
        <_>
          15 17 5 12 -1.</_>
        <_>
          15 23 5 6 2.</_></rects>
      <tilted>0</tilted></_>
    <_>
      <rects>
        <_>
          15 20 3 1 -1.</_>
        <_>
          16 20 1 1 3.</_></rects>
      <tilted>0</tilted></_>
    <_>
      <rects>
        <_>
          16 8 3 6 -1.</_>
        <_>
          16 11 3 3 2.</_></rects>
      <tilted>0</tilted></_>
    <_>
      <rects>
        <_>
          16 8 3 9 -1.</_>
        <_>
          16 11 3 3 3.</_></rects>
      <tilted>0</tilted></_>
    <_>
      <rects>
        <_>
          16 8 3 8 -1.</_>
        <_>
          16 12 3 4 2.</_></rects>
      <tilted>0</tilted></_>
    <_>
      <rects>
        <_>
          16 9 6 4 -1.</_>
        <_>
          16 11 6 2 2.</_></rects>
      <tilted>0</tilted></_>
    <_>
      <rects>
        <_>
          16 10 3 6 -1.</_>
        <_>
          16 13 3 3 2.</_></rects>
      <tilted>0</tilted></_>
    <_>
      <rects>
        <_>
          16 13 6 6 -1.</_>
        <_>
          16 13 3 3 2.</_>
        <_>
          19 16 3 3 2.</_></rects>
      <tilted>0</tilted></_>
    <_>
      <rects>
        <_>
          16 15 1 3 -1.</_>
        <_>
          16 16 1 1 3.</_></rects>
      <tilted>0</tilted></_>
    <_>
      <rects>
        <_>
          16 17 2 2 -1.</_>
        <_>
          16 17 1 1 2.</_>
        <_>
          17 18 1 1 2.</_></rects>
      <tilted>0</tilted></_>
    <_>
      <rects>
        <_>
          16 19 2 3 -1.</_>
        <_>
          16 20 2 1 3.</_></rects>
      <tilted>0</tilted></_>
    <_>
      <rects>
        <_>
          17 5 8 19 -1.</_>
        <_>
          21 5 4 19 2.</_></rects>
      <tilted>0</tilted></_>
    <_>
      <rects>
        <_>
          17 8 4 3 -1.</_>
        <_>
          17 9 4 1 3.</_></rects>
      <tilted>0</tilted></_>
    <_>
      <rects>
        <_>
          17 9 3 3 -1.</_>
        <_>
          17 10 3 1 3.</_></rects>
      <tilted>0</tilted></_>
    <_>
      <rects>
        <_>
          17 9 3 6 -1.</_>
        <_>
          17 12 3 3 2.</_></rects>
      <tilted>0</tilted></_>
    <_>
      <rects>
        <_>
          17 9 5 6 -1.</_>
        <_>
          17 11 5 2 3.</_></rects>
      <tilted>0</tilted></_>
    <_>
      <rects>
        <_>
          17 11 6 2 -1.</_>
        <_>
          17 11 3 1 2.</_>
        <_>
          20 12 3 1 2.</_></rects>
      <tilted>0</tilted></_>
    <_>
      <rects>
        <_>
          17 12 2 2 -1.</_>
        <_>
          17 12 1 1 2.</_>
        <_>
          18 13 1 1 2.</_></rects>
      <tilted>0</tilted></_>
    <_>
      <rects>
        <_>
          17 14 3 1 -1.</_>
        <_>
          18 14 1 1 3.</_></rects>
      <tilted>0</tilted></_>
    <_>
      <rects>
        <_>
          17 14 1 3 -1.</_>
        <_>
          17 15 1 1 3.</_></rects>
      <tilted>0</tilted></_>
    <_>
      <rects>
        <_>
          17 14 2 2 -1.</_>
        <_>
          17 14 1 1 2.</_>
        <_>
          18 15 1 1 2.</_></rects>
      <tilted>0</tilted></_>
    <_>
      <rects>
        <_>
          17 15 1 3 -1.</_>
        <_>
          17 16 1 1 3.</_></rects>
      <tilted>0</tilted></_>
    <_>
      <rects>
        <_>
          17 15 2 2 -1.</_>
        <_>
          17 15 1 1 2.</_>
        <_>
          18 16 1 1 2.</_></rects>
      <tilted>0</tilted></_>
    <_>
      <rects>
        <_>
          17 15 2 4 -1.</_>
        <_>
          17 15 1 2 2.</_>
        <_>
          18 17 1 2 2.</_></rects>
      <tilted>0</tilted></_>
    <_>
      <rects>
        <_>
          17 16 2 2 -1.</_>
        <_>
          17 16 1 1 2.</_>
        <_>
          18 17 1 1 2.</_></rects>
      <tilted>0</tilted></_>
    <_>
      <rects>
        <_>
          17 19 1 3 -1.</_>
        <_>
          17 20 1 1 3.</_></rects>
      <tilted>0</tilted></_>
    <_>
      <rects>
        <_>
          18 6 8 23 -1.</_>
        <_>
          22 6 4 23 2.</_></rects>
      <tilted>0</tilted></_>
    <_>
      <rects>
        <_>
          18 8 8 11 -1.</_>
        <_>
          22 8 4 11 2.</_></rects>
      <tilted>0</tilted></_>
    <_>
      <rects>
        <_>
          18 9 2 2 -1.</_>
        <_>
          18 9 1 1 2.</_>
        <_>
          19 10 1 1 2.</_></rects>
      <tilted>0</tilted></_>
    <_>
      <rects>
        <_>
          18 9 2 3 -1.</_>
        <_>
          18 10 2 1 3.</_></rects>
      <tilted>0</tilted></_>
    <_>
      <rects>
        <_>
          18 9 3 3 -1.</_>
        <_>
          18 10 3 1 3.</_></rects>
      <tilted>0</tilted></_>
    <_>
      <rects>
        <_>
          18 9 8 4 -1.</_>
        <_>
          22 9 4 4 2.</_></rects>
      <tilted>0</tilted></_>
    <_>
      <rects>
        <_>
          18 10 2 3 -1.</_>
        <_>
          18 11 2 1 3.</_></rects>
      <tilted>0</tilted></_>
    <_>
      <rects>
        <_>
          18 10 4 2 -1.</_>
        <_>
          18 10 2 1 2.</_>
        <_>
          20 11 2 1 2.</_></rects>
      <tilted>0</tilted></_>
    <_>
      <rects>
        <_>
          18 11 2 3 -1.</_>
        <_>
          18 12 2 1 3.</_></rects>
      <tilted>0</tilted></_>
    <_>
      <rects>
        <_>
          18 11 5 3 -1.</_>
        <_>
          18 12 5 1 3.</_></rects>
      <tilted>0</tilted></_>
    <_>
      <rects>
        <_>
          18 12 1 3 -1.</_>
        <_>
          18 13 1 1 3.</_></rects>
      <tilted>0</tilted></_>
    <_>
      <rects>
        <_>
          18 13 1 3 -1.</_>
        <_>
          18 14 1 1 3.</_></rects>
      <tilted>0</tilted></_>
    <_>
      <rects>
        <_>
          18 13 2 3 -1.</_>
        <_>
          18 14 2 1 3.</_></rects>
      <tilted>0</tilted></_>
    <_>
      <rects>
        <_>
          18 13 3 3 -1.</_>
        <_>
          18 14 3 1 3.</_></rects>
      <tilted>0</tilted></_>
    <_>
      <rects>
        <_>
          18 14 1 3 -1.</_>
        <_>
          18 15 1 1 3.</_></rects>
      <tilted>0</tilted></_>
    <_>
      <rects>
        <_>
          18 15 2 2 -1.</_>
        <_>
          18 15 1 1 2.</_>
        <_>
          19 16 1 1 2.</_></rects>
      <tilted>0</tilted></_>
    <_>
      <rects>
        <_>
          19 8 9 14 -1.</_>
        <_>
          22 8 3 14 3.</_></rects>
      <tilted>0</tilted></_>
    <_>
      <rects>
        <_>
          19 9 1 3 -1.</_>
        <_>
          19 10 1 1 3.</_></rects>
      <tilted>0</tilted></_>
    <_>
      <rects>
        <_>
          19 9 2 2 -1.</_>
        <_>
          19 9 1 1 2.</_>
        <_>
          20 10 1 1 2.</_></rects>
      <tilted>0</tilted></_>
    <_>
      <rects>
        <_>
          19 10 2 2 -1.</_>
        <_>
          19 10 1 1 2.</_>
        <_>
          20 11 1 1 2.</_></rects>
      <tilted>0</tilted></_>
    <_>
      <rects>
        <_>
          19 10 2 3 -1.</_>
        <_>
          19 11 2 1 3.</_></rects>
      <tilted>0</tilted></_>
    <_>
      <rects>
        <_>
          19 10 5 3 -1.</_>
        <_>
          19 11 5 1 3.</_></rects>
      <tilted>0</tilted></_>
    <_>
      <rects>
        <_>
          19 11 4 2 -1.</_>
        <_>
          19 11 2 1 2.</_>
        <_>
          21 12 2 1 2.</_></rects>
      <tilted>0</tilted></_>
    <_>
      <rects>
        <_>
          19 11 3 3 -1.</_>
        <_>
          19 12 3 1 3.</_></rects>
      <tilted>0</tilted></_>
    <_>
      <rects>
        <_>
          19 12 2 3 -1.</_>
        <_>
          19 13 2 1 3.</_></rects>
      <tilted>0</tilted></_>
    <_>
      <rects>
        <_>
          19 12 3 3 -1.</_>
        <_>
          19 13 3 1 3.</_></rects>
      <tilted>0</tilted></_>
    <_>
      <rects>
        <_>
          19 13 2 3 -1.</_>
        <_>
          19 14 2 1 3.</_></rects>
      <tilted>0</tilted></_>
    <_>
      <rects>
        <_>
          19 13 3 3 -1.</_>
        <_>
          19 14 3 1 3.</_></rects>
      <tilted>0</tilted></_>
    <_>
      <rects>
        <_>
          19 14 2 3 -1.</_>
        <_>
          19 15 2 1 3.</_></rects>
      <tilted>0</tilted></_>
    <_>
      <rects>
        <_>
          20 9 1 3 -1.</_>
        <_>
          20 10 1 1 3.</_></rects>
      <tilted>0</tilted></_>
    <_>
      <rects>
        <_>
          20 10 1 3 -1.</_>
        <_>
          20 11 1 1 3.</_></rects>
      <tilted>0</tilted></_>
    <_>
      <rects>
        <_>
          20 11 1 3 -1.</_>
        <_>
          20 12 1 1 3.</_></rects>
      <tilted>0</tilted></_>
    <_>
      <rects>
        <_>
          20 12 2 3 -1.</_>
        <_>
          20 13 2 1 3.</_></rects>
      <tilted>0</tilted></_>
    <_>
      <rects>
        <_>
          20 13 3 3 -1.</_>
        <_>
          20 14 3 1 3.</_></rects>
      <tilted>0</tilted></_>
    <_>
      <rects>
        <_>
          20 14 2 2 -1.</_>
        <_>
          20 14 1 1 2.</_>
        <_>
          21 15 1 1 2.</_></rects>
      <tilted>0</tilted></_>
    <_>
      <rects>
        <_>
          24 10 2 3 -1.</_>
        <_>
          24 11 2 1 3.</_></rects>
      <tilted>0</tilted></_>
    <_>
      <rects>
        <_>
          25 11 1 2 -1.</_>
        <_>
          25 12 1 1 2.</_></rects>
      <tilted>0</tilted></_>
    <_>
      <rects>
        <_>
          26 21 2 4 -1.</_>
        <_>
          26 21 1 2 2.</_>
        <_>
          27 23 1 2 2.</_></rects>
      <tilted>0</tilted></_>
    <_>
      <rects>
        <_>
          27 23 2 2 -1.</_>
        <_>
          27 23 1 1 2.</_>
        <_>
          28 24 1 1 2.</_></rects>
      <tilted>0</tilted></_></features></cascade>
</opencv_storage>
