<?xml version="1.0"?>
<opencv_storage>
<cascade>
  <stageType>BOOST</stageType>
  <featureType>HAAR</featureType>
  <height>40</height>
  <width>40</width>
  <stageParams>
    <boostType>GAB</boostType>
    <minHitRate>9.9500000476837158e-01</minHitRate>
    <maxFalseAlarm>5.0000000000000000e-01</maxFalseAlarm>
    <weightTrimRate>9.4999999999999996e-01</weightTrimRate>
    <maxDepth>1</maxDepth>
    <maxWeakCount>100</maxWeakCount></stageParams>
  <featureParams>
    <maxCatCount>0</maxCatCount>
    <featSize>1</featSize>
    <mode>BASIC</mode></featureParams>
  <stageNum>15</stageNum>
  <stages>
    <!-- stage 0 -->
    <_>
      <maxWeakCount>7</maxWeakCount>
      <stageThreshold>-1.0517272949218750e+00</stageThreshold>
      <weakClassifiers>
        <_>
          <internalNodes>
            0 -1 31 1.1342659592628479e-01</internalNodes>
          <leafValues>
            -7.0370370149612427e-01 8.6756455898284912e-01</leafValues></_>
        <_>
          <internalNodes>
            0 -1 88 2.0448831841349602e-02</internalNodes>
          <leafValues>
            -6.1755555868148804e-01 5.6043833494186401e-01</leafValues></_>
        <_>
          <internalNodes>
            0 -1 71 -6.0109011828899384e-02</internalNodes>
          <leafValues>
            4.1707941889762878e-01 -6.7952364683151245e-01</leafValues></_>
        <_>
          <internalNodes>
            0 -1 157 -4.9993626773357391e-02</internalNodes>
          <leafValues>
            4.2040830850601196e-01 -5.9368926286697388e-01</leafValues></_>
        <_>
          <internalNodes>
            0 -1 193 1.5143958153203130e-03</internalNodes>
          <leafValues>
            1.8067987263202667e-01 -8.7180620431900024e-01</leafValues></_>
        <_>
          <internalNodes>
            0 -1 211 -1.3327631168067455e-03</internalNodes>
          <leafValues>
            -9.3326783180236816e-01 1.1065624654293060e-01</leafValues></_>
        <_>
          <internalNodes>
            0 -1 35 1.6743328887969255e-03</internalNodes>
          <leafValues>
            -5.6965327262878418e-01 2.3731118440628052e-01</leafValues></_></weakClassifiers></_>
    <!-- stage 1 -->
    <_>
      <maxWeakCount>7</maxWeakCount>
      <stageThreshold>-7.8880125284194946e-01</stageThreshold>
      <weakClassifiers>
        <_>
          <internalNodes>
            0 -1 135 -9.4093464314937592e-02</internalNodes>
          <leafValues>
            7.0142930746078491e-01 -5.2404439449310303e-01</leafValues></_>
        <_>
          <internalNodes>
            0 -1 105 2.1150222420692444e-01</internalNodes>
          <leafValues>
            -4.6761131286621094e-01 6.7501765489578247e-01</leafValues></_>
        <_>
          <internalNodes>
            0 -1 20 4.3766587972640991e-02</internalNodes>
          <leafValues>
            -6.6591066122055054e-01 4.0028962492942810e-01</leafValues></_>
        <_>
          <internalNodes>
            0 -1 191 -1.2006281394860707e-05</internalNodes>
          <leafValues>
            2.5986292958259583e-01 -6.9835430383682251e-01</leafValues></_>
        <_>
          <internalNodes>
            0 -1 209 6.0967123135924339e-04</internalNodes>
          <leafValues>
            2.2434446215629578e-01 -7.8378784656524658e-01</leafValues></_>
        <_>
          <internalNodes>
            0 -1 78 -6.4271567389369011e-03</internalNodes>
          <leafValues>
            -8.2587975263595581e-01 1.6583001613616943e-01</leafValues></_>
        <_>
          <internalNodes>
            0 -1 173 1.8247300758957863e-03</internalNodes>
          <leafValues>
            2.1872763335704803e-01 -7.0914441347122192e-01</leafValues></_></weakClassifiers></_>
    <!-- stage 2 -->
    <_>
      <maxWeakCount>9</maxWeakCount>
      <stageThreshold>-8.7217634916305542e-01</stageThreshold>
      <weakClassifiers>
        <_>
          <internalNodes>
            0 -1 32 1.6910159587860107e-01</internalNodes>
          <leafValues>
            -3.7142857909202576e-01 7.1282052993774414e-01</leafValues></_>
        <_>
          <internalNodes>
            0 -1 101 -1.1027213186025620e-01</internalNodes>
          <leafValues>
            5.4191988706588745e-01 -4.9646523594856262e-01</leafValues></_>
        <_>
          <internalNodes>
            0 -1 9 7.0023760199546814e-03</internalNodes>
          <leafValues>
            -6.8461298942565918e-01 2.6737794280052185e-01</leafValues></_>
        <_>
          <internalNodes>
            0 -1 183 -1.4221374876797199e-03</internalNodes>
          <leafValues>
            2.5481739640235901e-01 -7.2634917497634888e-01</leafValues></_>
        <_>
          <internalNodes>
            0 -1 161 5.4840283701196313e-04</internalNodes>
          <leafValues>
            1.5011261403560638e-01 -8.5977977514266968e-01</leafValues></_>
        <_>
          <internalNodes>
            0 -1 73 1.0788018116727471e-03</internalNodes>
          <leafValues>
            1.6445311903953552e-01 -7.7188009023666382e-01</leafValues></_>
        <_>
          <internalNodes>
            0 -1 37 2.5900620222091675e-01</internalNodes>
          <leafValues>
            -2.2812913358211517e-01 7.7823185920715332e-01</leafValues></_>
        <_>
          <internalNodes>
            0 -1 181 2.9745686333626509e-04</internalNodes>
          <leafValues>
            2.1432434022426605e-01 -7.9109209775924683e-01</leafValues></_>
        <_>
          <internalNodes>
            0 -1 25 -1.0506317485123873e-03</internalNodes>
          <leafValues>
            -7.3872315883636475e-01 1.5392774343490601e-01</leafValues></_></weakClassifiers></_>
    <!-- stage 3 -->
    <_>
      <maxWeakCount>8</maxWeakCount>
      <stageThreshold>-6.7447054386138916e-01</stageThreshold>
      <weakClassifiers>
        <_>
          <internalNodes>
            0 -1 111 1.6317531466484070e-01</internalNodes>
          <leafValues>
            -2.2654867172241211e-01 7.3630571365356445e-01</leafValues></_>
        <_>
          <internalNodes>
            0 -1 134 -1.0085944831371307e-01</internalNodes>
          <leafValues>
            4.3960210680961609e-01 -5.8772158622741699e-01</leafValues></_>
        <_>
          <internalNodes>
            0 -1 23 7.5272977352142334e-02</internalNodes>
          <leafValues>
            -5.5738896131515503e-01 3.0585914850234985e-01</leafValues></_>
        <_>
          <internalNodes>
            0 -1 142 1.2495096307247877e-03</internalNodes>
          <leafValues>
            1.9894817471504211e-01 -7.5588816404342651e-01</leafValues></_>
        <_>
          <internalNodes>
            0 -1 57 5.6323306635022163e-03</internalNodes>
          <leafValues>
            1.6265802085399628e-01 -8.0802309513092041e-01</leafValues></_>
        <_>
          <internalNodes>
            0 -1 204 1.3206765288487077e-04</internalNodes>
          <leafValues>
            1.9654619693756104e-01 -6.8016111850738525e-01</leafValues></_>
        <_>
          <internalNodes>
            0 -1 58 -4.2265658266842365e-03</internalNodes>
          <leafValues>
            -8.7497770786285400e-01 1.4422658085823059e-01</leafValues></_>
        <_>
          <internalNodes>
            0 -1 41 -4.4291652739048004e-03</internalNodes>
          <leafValues>
            1.5076589584350586e-01 -8.8392359018325806e-01</leafValues></_></weakClassifiers></_>
    <!-- stage 4 -->
    <_>
      <maxWeakCount>10</maxWeakCount>
      <stageThreshold>-1.2836844921112061e+00</stageThreshold>
      <weakClassifiers>
        <_>
          <internalNodes>
            0 -1 137 -9.3537822365760803e-02</internalNodes>
          <leafValues>
            6.8608218431472778e-01 -2.0486435294151306e-01</leafValues></_>
        <_>
          <internalNodes>
            0 -1 107 2.8119906783103943e-01</internalNodes>
          <leafValues>
            -2.1922290325164795e-01 6.2074226140975952e-01</leafValues></_>
        <_>
          <internalNodes>
            0 -1 181 -3.7406705087050796e-04</internalNodes>
          <leafValues>
            -7.4788892269134521e-01 2.1149227023124695e-01</leafValues></_>
        <_>
          <internalNodes>
            0 -1 220 -2.2518215700984001e-03</internalNodes>
          <leafValues>
            -8.1568592786788940e-01 1.4674216508865356e-01</leafValues></_>
        <_>
          <internalNodes>
            0 -1 213 -4.1263275779783726e-03</internalNodes>
          <leafValues>
            -7.8373587131500244e-01 1.6376861929893494e-01</leafValues></_>
        <_>
          <internalNodes>
            0 -1 121 -3.2580102561041713e-04</internalNodes>
          <leafValues>
            5.7949972152709961e-01 -2.3808836936950684e-01</leafValues></_>
        <_>
          <internalNodes>
            0 -1 47 -6.4392294734716415e-04</internalNodes>
          <leafValues>
            -7.6530969142913818e-01 1.7943373322486877e-01</leafValues></_>
        <_>
          <internalNodes>
            0 -1 46 -1.5999119495972991e-03</internalNodes>
          <leafValues>
            1.9496183097362518e-01 -6.7434787750244141e-01</leafValues></_>
        <_>
          <internalNodes>
            0 -1 34 2.5897016748785973e-03</internalNodes>
          <leafValues>
            1.5513445436954498e-01 -7.2276335954666138e-01</leafValues></_>
        <_>
          <internalNodes>
            0 -1 16 -7.3755504563450813e-03</internalNodes>
          <leafValues>
            -8.2309371232986450e-01 1.4959932863712311e-01</leafValues></_></weakClassifiers></_>
    <!-- stage 5 -->
    <_>
      <maxWeakCount>11</maxWeakCount>
      <stageThreshold>-1.2092897891998291e+00</stageThreshold>
      <weakClassifiers>
        <_>
          <internalNodes>
            0 -1 149 -6.6859200596809387e-02</internalNodes>
          <leafValues>
            5.3433376550674438e-01 -5.4890221357345581e-01</leafValues></_>
        <_>
          <internalNodes>
            0 -1 124 1.5576493740081787e-01</internalNodes>
          <leafValues>
            -3.1618335843086243e-01 5.7934808731079102e-01</leafValues></_>
        <_>
          <internalNodes>
            0 -1 10 3.7267832085490227e-03</internalNodes>
          <leafValues>
            2.2770647704601288e-01 -8.0296134948730469e-01</leafValues></_>
        <_>
          <internalNodes>
            0 -1 19 2.4338420480489731e-02</internalNodes>
          <leafValues>
            -6.8900322914123535e-01 1.7848145961761475e-01</leafValues></_>
        <_>
          <internalNodes>
            0 -1 42 3.5269634099677205e-04</internalNodes>
          <leafValues>
            1.6827376186847687e-01 -7.2543674707412720e-01</leafValues></_>
        <_>
          <internalNodes>
            0 -1 81 4.4967081397771835e-02</internalNodes>
          <leafValues>
            -5.8951991796493530e-01 2.2251789271831512e-01</leafValues></_>
        <_>
          <internalNodes>
            0 -1 216 1.9841506145894527e-03</internalNodes>
          <leafValues>
            2.0275259017944336e-01 -6.7089033126831055e-01</leafValues></_>
        <_>
          <internalNodes>
            0 -1 56 1.9539352506399155e-03</internalNodes>
          <leafValues>
            1.5097175538539886e-01 -7.7411371469497681e-01</leafValues></_>
        <_>
          <internalNodes>
            0 -1 206 -9.5922835171222687e-03</internalNodes>
          <leafValues>
            -8.6103630065917969e-01 1.3627949357032776e-01</leafValues></_>
        <_>
          <internalNodes>
            0 -1 139 -8.4721395978704095e-05</internalNodes>
          <leafValues>
            5.3211182355880737e-01 -2.5793218612670898e-01</leafValues></_>
        <_>
          <internalNodes>
            0 -1 53 1.3335936237126589e-03</internalNodes>
          <leafValues>
            1.7834667861461639e-01 -7.1292865276336670e-01</leafValues></_></weakClassifiers></_>
    <!-- stage 6 -->
    <_>
      <maxWeakCount>14</maxWeakCount>
      <stageThreshold>-1.1072394847869873e+00</stageThreshold>
      <weakClassifiers>
        <_>
          <internalNodes>
            0 -1 33 6.7922890186309814e-02</internalNodes>
          <leafValues>
            -1.3353115320205688e-01 6.1278861761093140e-01</leafValues></_>
        <_>
          <internalNodes>
            0 -1 202 -6.2719383276998997e-04</internalNodes>
          <leafValues>
            -6.6674441099166870e-01 2.4260608851909637e-01</leafValues></_>
        <_>
          <internalNodes>
            0 -1 94 1.0681883990764618e-01</internalNodes>
          <leafValues>
            -4.2585128545761108e-01 2.9537537693977356e-01</leafValues></_>
        <_>
          <internalNodes>
            0 -1 51 7.5737899169325829e-04</internalNodes>
          <leafValues>
            1.9336637854576111e-01 -7.1058809757232666e-01</leafValues></_>
        <_>
          <internalNodes>
            0 -1 54 5.3018946200609207e-03</internalNodes>
          <leafValues>
            1.0558674484491348e-01 -8.1158977746963501e-01</leafValues></_>
        <_>
          <internalNodes>
            0 -1 0 -3.5414604935795069e-03</internalNodes>
          <leafValues>
            -7.7763712406158447e-01 1.2291219085454941e-01</leafValues></_>
        <_>
          <internalNodes>
            0 -1 215 1.3947337865829468e-03</internalNodes>
          <leafValues>
            1.4886718988418579e-01 -7.2212404012680054e-01</leafValues></_>
        <_>
          <internalNodes>
            0 -1 91 8.5677718743681908e-04</internalNodes>
          <leafValues>
            1.2320329248905182e-01 -7.1234542131423950e-01</leafValues></_>
        <_>
          <internalNodes>
            0 -1 166 -4.8980629071593285e-04</internalNodes>
          <leafValues>
            1.9269633293151855e-01 -5.5301988124847412e-01</leafValues></_>
        <_>
          <internalNodes>
            0 -1 7 -6.4743948169052601e-03</internalNodes>
          <leafValues>
            -6.7797666788101196e-01 1.6477155685424805e-01</leafValues></_>
        <_>
          <internalNodes>
            0 -1 163 6.4929530024528503e-02</internalNodes>
          <leafValues>
            -2.6194125413894653e-01 4.1527450084686279e-01</leafValues></_>
        <_>
          <internalNodes>
            0 -1 13 2.3484611883759499e-03</internalNodes>
          <leafValues>
            1.5739069879055023e-01 -6.6486304998397827e-01</leafValues></_>
        <_>
          <internalNodes>
            0 -1 118 -2.0010829903185368e-03</internalNodes>
          <leafValues>
            -5.5453813076019287e-01 1.7109668254852295e-01</leafValues></_>
        <_>
          <internalNodes>
            0 -1 108 -8.8171131210401654e-05</internalNodes>
          <leafValues>
            4.9486926198005676e-01 -2.1516790986061096e-01</leafValues></_></weakClassifiers></_>
    <!-- stage 7 -->
    <_>
      <maxWeakCount>13</maxWeakCount>
      <stageThreshold>-7.9075235128402710e-01</stageThreshold>
      <weakClassifiers>
        <_>
          <internalNodes>
            0 -1 155 -1.3619695091620088e-03</internalNodes>
          <leafValues>
            -6.0000002384185791e-01 4.7462686896324158e-01</leafValues></_>
        <_>
          <internalNodes>
            0 -1 36 2.0153589546680450e-01</internalNodes>
          <leafValues>
            -3.1720864772796631e-01 4.5666506886482239e-01</leafValues></_>
        <_>
          <internalNodes>
            0 -1 55 -8.4005610551685095e-04</internalNodes>
          <leafValues>
            -6.7599010467529297e-01 1.7881701886653900e-01</leafValues></_>
        <_>
          <internalNodes>
            0 -1 153 -1.5299700316973031e-04</internalNodes>
          <leafValues>
            5.2444279193878174e-01 -2.1376495063304901e-01</leafValues></_>
        <_>
          <internalNodes>
            0 -1 160 6.9912953767925501e-04</internalNodes>
          <leafValues>
            1.2096468359231949e-01 -7.3513132333755493e-01</leafValues></_>
        <_>
          <internalNodes>
            0 -1 62 -4.0966635569930077e-03</internalNodes>
          <leafValues>
            -7.5704848766326904e-01 1.2794800102710724e-01</leafValues></_>
        <_>
          <internalNodes>
            0 -1 152 5.6274759117513895e-05</internalNodes>
          <leafValues>
            -2.5283387303352356e-01 4.3298596143722534e-01</leafValues></_>
        <_>
          <internalNodes>
            0 -1 26 2.0413218589965254e-04</internalNodes>
          <leafValues>
            -5.4338926076889038e-01 1.8137454986572266e-01</leafValues></_>
        <_>
          <internalNodes>
            0 -1 195 -1.4572904910892248e-03</internalNodes>
          <leafValues>
            -6.8480324745178223e-01 1.3830493390560150e-01</leafValues></_>
        <_>
          <internalNodes>
            0 -1 187 -8.3591861766763031e-05</internalNodes>
          <leafValues>
            2.5409284234046936e-01 -4.9170994758605957e-01</leafValues></_>
        <_>
          <internalNodes>
            0 -1 66 7.7465118374675512e-04</internalNodes>
          <leafValues>
            1.6538718342781067e-01 -5.1092386245727539e-01</leafValues></_>
        <_>
          <internalNodes>
            0 -1 27 3.9079867303371429e-02</internalNodes>
          <leafValues>
            -6.1572617292404175e-01 1.5887242555618286e-01</leafValues></_>
        <_>
          <internalNodes>
            0 -1 99 4.8305015079677105e-03</internalNodes>
          <leafValues>
            1.2210059911012650e-01 -6.6436606645584106e-01</leafValues></_></weakClassifiers></_>
    <!-- stage 8 -->
    <_>
      <maxWeakCount>19</maxWeakCount>
      <stageThreshold>-9.6608823537826538e-01</stageThreshold>
      <weakClassifiers>
        <_>
          <internalNodes>
            0 -1 218 -5.0644269213080406e-03</internalNodes>
          <leafValues>
            -5.7988166809082031e-01 4.6401354670524597e-01</leafValues></_>
        <_>
          <internalNodes>
            0 -1 109 -1.2345716357231140e-01</internalNodes>
          <leafValues>
            3.0683410167694092e-01 -5.1893919706344604e-01</leafValues></_>
        <_>
          <internalNodes>
            0 -1 1 -4.4001056812703609e-03</internalNodes>
          <leafValues>
            -8.2042378187179565e-01 1.1872059851884842e-01</leafValues></_>
        <_>
          <internalNodes>
            0 -1 167 -1.1199263099115342e-05</internalNodes>
          <leafValues>
            2.3235593736171722e-01 -4.1582238674163818e-01</leafValues></_>
        <_>
          <internalNodes>
            0 -1 29 2.1074060350656509e-03</internalNodes>
          <leafValues>
            1.4322695136070251e-01 -6.6141986846923828e-01</leafValues></_>
        <_>
          <internalNodes>
            0 -1 87 5.4690189659595490e-02</internalNodes>
          <leafValues>
            -5.0540304183959961e-01 1.6609185934066772e-01</leafValues></_>
        <_>
          <internalNodes>
            0 -1 214 2.7002808637917042e-03</internalNodes>
          <leafValues>
            1.4036877453327179e-01 -6.1788129806518555e-01</leafValues></_>
        <_>
          <internalNodes>
            0 -1 76 4.7290598740801215e-04</internalNodes>
          <leafValues>
            1.3394109904766083e-01 -6.2672084569931030e-01</leafValues></_>
        <_>
          <internalNodes>
            0 -1 141 -3.6665794323198497e-04</internalNodes>
          <leafValues>
            5.4182761907577515e-01 -1.8042892217636108e-01</leafValues></_>
        <_>
          <internalNodes>
            0 -1 162 -5.5389726185239851e-05</internalNodes>
          <leafValues>
            2.1979321539402008e-01 -4.0150225162506104e-01</leafValues></_>
        <_>
          <internalNodes>
            0 -1 48 1.1281988008704502e-05</internalNodes>
          <leafValues>
            -2.9229763150215149e-01 2.7323925495147705e-01</leafValues></_>
        <_>
          <internalNodes>
            0 -1 182 -7.8752043191343546e-04</internalNodes>
          <leafValues>
            -7.2428488731384277e-01 8.5603930056095123e-02</leafValues></_>
        <_>
          <internalNodes>
            0 -1 148 -1.9898416940122843e-04</internalNodes>
          <leafValues>
            4.2719128727912903e-01 -2.0233589410781860e-01</leafValues></_>
        <_>
          <internalNodes>
            0 -1 147 -1.8755061319097877e-04</internalNodes>
          <leafValues>
            4.5275956392288208e-01 -2.0141917467117310e-01</leafValues></_>
        <_>
          <internalNodes>
            0 -1 74 3.7048303056508303e-04</internalNodes>
          <leafValues>
            1.3074843585491180e-01 -7.3773962259292603e-01</leafValues></_>
        <_>
          <internalNodes>
            0 -1 8 7.9510773502988741e-06</internalNodes>
          <leafValues>
            -5.3762799501419067e-01 1.3834154605865479e-01</leafValues></_>
        <_>
          <internalNodes>
            0 -1 70 1.8693811725825071e-03</internalNodes>
          <leafValues>
            1.1307213455438614e-01 -6.2494355440139771e-01</leafValues></_>
        <_>
          <internalNodes>
            0 -1 69 2.5380833540111780e-04</internalNodes>
          <leafValues>
            1.2582890689373016e-01 -5.5884420871734619e-01</leafValues></_>
        <_>
          <internalNodes>
            0 -1 85 -5.1019317470490932e-04</internalNodes>
          <leafValues>
            -5.0685805082321167e-01 1.7137257754802704e-01</leafValues></_></weakClassifiers></_>
    <!-- stage 9 -->
    <_>
      <maxWeakCount>16</maxWeakCount>
      <stageThreshold>-8.3266717195510864e-01</stageThreshold>
      <weakClassifiers>
        <_>
          <internalNodes>
            0 -1 150 -1.0569600015878677e-01</internalNodes>
          <leafValues>
            5.5995827913284302e-01 -2.2250638902187347e-01</leafValues></_>
        <_>
          <internalNodes>
            0 -1 112 3.2005986571311951e-01</internalNodes>
          <leafValues>
            -1.2761808931827545e-01 6.2837135791778564e-01</leafValues></_>
        <_>
          <internalNodes>
            0 -1 217 -3.4961907658725977e-03</internalNodes>
          <leafValues>
            -7.5674015283584595e-01 1.3187067210674286e-01</leafValues></_>
        <_>
          <internalNodes>
            0 -1 156 -2.9054998885840178e-03</internalNodes>
          <leafValues>
            -6.7669481039047241e-01 1.1156293004751205e-01</leafValues></_>
        <_>
          <internalNodes>
            0 -1 39 -3.5973307676613331e-03</internalNodes>
          <leafValues>
            -7.6058685779571533e-01 1.0473581403493881e-01</leafValues></_>
        <_>
          <internalNodes>
            0 -1 49 -1.5302201063605025e-05</internalNodes>
          <leafValues>
            1.9375801086425781e-01 -4.4276934862136841e-01</leafValues></_>
        <_>
          <internalNodes>
            0 -1 189 -2.1685563842765987e-04</internalNodes>
          <leafValues>
            -6.5246677398681641e-01 9.3249201774597168e-02</leafValues></_>
        <_>
          <internalNodes>
            0 -1 86 -3.3774096518754959e-03</internalNodes>
          <leafValues>
            -7.4358940124511719e-01 1.0573717206716537e-01</leafValues></_>
        <_>
          <internalNodes>
            0 -1 40 1.2452681548893452e-03</internalNodes>
          <leafValues>
            1.0371177643537521e-01 -6.8313699960708618e-01</leafValues></_>
        <_>
          <internalNodes>
            0 -1 143 -4.3845716863870621e-03</internalNodes>
          <leafValues>
            -8.4254258871078491e-01 8.5850507020950317e-02</leafValues></_>
        <_>
          <internalNodes>
            0 -1 179 -7.7180156949907541e-04</internalNodes>
          <leafValues>
            1.3756275177001953e-01 -5.1676076650619507e-01</leafValues></_>
        <_>
          <internalNodes>
            0 -1 122 -2.6991899358108640e-04</internalNodes>
          <leafValues>
            5.8999514579772949e-01 -1.5688322484493256e-01</leafValues></_>
        <_>
          <internalNodes>
            0 -1 22 8.0153599381446838e-02</internalNodes>
          <leafValues>
            -4.5499089360237122e-01 1.7375092208385468e-01</leafValues></_>
        <_>
          <internalNodes>
            0 -1 197 6.5796775743365288e-04</internalNodes>
          <leafValues>
            1.2481337040662766e-01 -6.7571431398391724e-01</leafValues></_>
        <_>
          <internalNodes>
            0 -1 116 -2.8843898326158524e-04</internalNodes>
          <leafValues>
            3.9057871699333191e-01 -2.2299823164939880e-01</leafValues></_>
        <_>
          <internalNodes>
            0 -1 93 -2.5208573788404465e-04</internalNodes>
          <leafValues>
            1.2731927633285522e-01 -5.7809287309646606e-01</leafValues></_></weakClassifiers></_>
    <!-- stage 10 -->
    <_>
      <maxWeakCount>18</maxWeakCount>
      <stageThreshold>-9.0570688247680664e-01</stageThreshold>
      <weakClassifiers>
        <_>
          <internalNodes>
            0 -1 111 1.7214620113372803e-01</internalNodes>
          <leafValues>
            -1.0282257944345474e-01 5.8665102720260620e-01</leafValues></_>
        <_>
          <internalNodes>
            0 -1 132 -1.2762930989265442e-01</internalNodes>
          <leafValues>
            2.6071512699127197e-01 -4.6349585056304932e-01</leafValues></_>
        <_>
          <internalNodes>
            0 -1 212 -2.4388376623392105e-03</internalNodes>
          <leafValues>
            -6.4949655532836914e-01 1.2088912725448608e-01</leafValues></_>
        <_>
          <internalNodes>
            0 -1 104 -5.7320147752761841e-03</internalNodes>
          <leafValues>
            -7.9196733236312866e-01 9.2678882181644440e-02</leafValues></_>
        <_>
          <internalNodes>
            0 -1 59 4.2656334117054939e-03</internalNodes>
          <leafValues>
            8.2830071449279785e-02 -8.1025022268295288e-01</leafValues></_>
        <_>
          <internalNodes>
            0 -1 4 -1.8019634298980236e-03</internalNodes>
          <leafValues>
            -5.7126706838607788e-01 1.1885109543800354e-01</leafValues></_>
        <_>
          <internalNodes>
            0 -1 92 1.8237400799989700e-02</internalNodes>
          <leafValues>
            -4.0362977981567383e-01 1.8601827323436737e-01</leafValues></_>
        <_>
          <internalNodes>
            0 -1 64 -6.2311046349350363e-06</internalNodes>
          <leafValues>
            1.8694330751895905e-01 -4.3285754323005676e-01</leafValues></_>
        <_>
          <internalNodes>
            0 -1 15 8.8279205374419689e-04</internalNodes>
          <leafValues>
            1.1708032339811325e-01 -6.6207265853881836e-01</leafValues></_>
        <_>
          <internalNodes>
            0 -1 75 -2.1447599865496159e-03</internalNodes>
          <leafValues>
            -6.9575846195220947e-01 9.7863540053367615e-02</leafValues></_>
        <_>
          <internalNodes>
            0 -1 194 -1.1591322618187405e-05</internalNodes>
          <leafValues>
            2.1228942275047302e-01 -3.4321898221969604e-01</leafValues></_>
        <_>
          <internalNodes>
            0 -1 164 -4.2134150862693787e-04</internalNodes>
          <leafValues>
            3.6473348736763000e-01 -2.4411965906620026e-01</leafValues></_>
        <_>
          <internalNodes>
            0 -1 178 -1.7563276924192905e-03</internalNodes>
          <leafValues>
            -7.4604701995849609e-01 1.1569686979055405e-01</leafValues></_>
        <_>
          <internalNodes>
            0 -1 50 -1.3814204430673271e-04</internalNodes>
          <leafValues>
            1.3958252966403961e-01 -4.6949201822280884e-01</leafValues></_>
        <_>
          <internalNodes>
            0 -1 180 -3.5476963967084885e-04</internalNodes>
          <leafValues>
            -5.6251460313796997e-01 1.0244499146938324e-01</leafValues></_>
        <_>
          <internalNodes>
            0 -1 140 -1.0743192251538858e-04</internalNodes>
          <leafValues>
            3.5556286573410034e-01 -1.8777944147586823e-01</leafValues></_>
        <_>
          <internalNodes>
            0 -1 11 -5.2913897670805454e-03</internalNodes>
          <leafValues>
            -6.9167411327362061e-01 9.9388115108013153e-02</leafValues></_>
        <_>
          <internalNodes>
            0 -1 95 -2.4418946850346401e-05</internalNodes>
          <leafValues>
            3.7085348367691040e-01 -1.8199869990348816e-01</leafValues></_></weakClassifiers></_>
    <!-- stage 11 -->
    <_>
      <maxWeakCount>21</maxWeakCount>
      <stageThreshold>-9.3470573425292969e-01</stageThreshold>
      <weakClassifiers>
        <_>
          <internalNodes>
            0 -1 125 5.5459745228290558e-02</internalNodes>
          <leafValues>
            -8.6474500596523285e-02 5.4393768310546875e-01</leafValues></_>
        <_>
          <internalNodes>
            0 -1 80 2.8721555136144161e-03</internalNodes>
          <leafValues>
            1.5627247095108032e-01 -6.8420296907424927e-01</leafValues></_>
        <_>
          <internalNodes>
            0 -1 133 -1.3129638973623514e-03</internalNodes>
          <leafValues>
            2.1253855526447296e-01 -4.2246547341346741e-01</leafValues></_>
        <_>
          <internalNodes>
            0 -1 52 8.8683391368249431e-06</internalNodes>
          <leafValues>
            -3.4533140063285828e-01 2.2677230834960938e-01</leafValues></_>
        <_>
          <internalNodes>
            0 -1 106 3.4672665596008301e-01</internalNodes>
          <leafValues>
            -1.8667003512382507e-01 3.8397505879402161e-01</leafValues></_>
        <_>
          <internalNodes>
            0 -1 97 -1.0783932521007955e-04</internalNodes>
          <leafValues>
            7.7498525381088257e-02 -6.9049978256225586e-01</leafValues></_>
        <_>
          <internalNodes>
            0 -1 165 -9.6116214990615845e-05</internalNodes>
          <leafValues>
            3.9573490619659424e-01 -1.9184890389442444e-01</leafValues></_>
        <_>
          <internalNodes>
            0 -1 176 -2.3339851759374142e-04</internalNodes>
          <leafValues>
            -5.7370561361312866e-01 1.3796095550060272e-01</leafValues></_>
        <_>
          <internalNodes>
            0 -1 5 -5.5536362342536449e-03</internalNodes>
          <leafValues>
            -6.7657798528671265e-01 9.7028672695159912e-02</leafValues></_>
        <_>
          <internalNodes>
            0 -1 196 -1.8871232168748975e-04</internalNodes>
          <leafValues>
            1.3414305448532104e-01 -4.8047485947608948e-01</leafValues></_>
        <_>
          <internalNodes>
            0 -1 201 1.0644698049873114e-03</internalNodes>
          <leafValues>
            1.0153562575578690e-01 -5.7215613126754761e-01</leafValues></_>
        <_>
          <internalNodes>
            0 -1 14 1.6787208151072264e-03</internalNodes>
          <leafValues>
            1.2503241002559662e-01 -5.6326580047607422e-01</leafValues></_>
        <_>
          <internalNodes>
            0 -1 110 1.6520105418749154e-04</internalNodes>
          <leafValues>
            1.4165097475051880e-01 -5.1430231332778931e-01</leafValues></_>
        <_>
          <internalNodes>
            0 -1 158 -2.5568774435669184e-03</internalNodes>
          <leafValues>
            -5.8790057897567749e-01 1.2109649926424026e-01</leafValues></_>
        <_>
          <internalNodes>
            0 -1 136 -1.3757032866124064e-04</internalNodes>
          <leafValues>
            4.2813530564308167e-01 -1.7463633418083191e-01</leafValues></_>
        <_>
          <internalNodes>
            0 -1 126 -8.8037122623063624e-06</internalNodes>
          <leafValues>
            3.4834155440330505e-01 -2.0990328490734100e-01</leafValues></_>
        <_>
          <internalNodes>
            0 -1 128 -7.1756745455786586e-05</internalNodes>
          <leafValues>
            3.4559759497642517e-01 -1.9686959683895111e-01</leafValues></_>
        <_>
          <internalNodes>
            0 -1 207 -1.1698368471115828e-03</internalNodes>
          <leafValues>
            -7.2789800167083740e-01 1.0511597990989685e-01</leafValues></_>
        <_>
          <internalNodes>
            0 -1 113 6.9951382465660572e-04</internalNodes>
          <leafValues>
            -1.7375071346759796e-01 3.9577746391296387e-01</leafValues></_>
        <_>
          <internalNodes>
            0 -1 24 -2.4003831204026937e-03</internalNodes>
          <leafValues>
            -7.6219612360000610e-01 8.9682713150978088e-02</leafValues></_>
        <_>
          <internalNodes>
            0 -1 185 9.1671990958275273e-06</internalNodes>
          <leafValues>
            -2.3377339541912079e-01 2.9529616236686707e-01</leafValues></_></weakClassifiers></_>
    <!-- stage 12 -->
    <_>
      <maxWeakCount>24</maxWeakCount>
      <stageThreshold>-7.2635251283645630e-01</stageThreshold>
      <weakClassifiers>
        <_>
          <internalNodes>
            0 -1 58 -2.9551186598837376e-03</internalNodes>
          <leafValues>
            -5.3125000000000000e-01 4.2389523983001709e-01</leafValues></_>
        <_>
          <internalNodes>
            0 -1 96 -7.3910810053348541e-02</internalNodes>
          <leafValues>
            2.8036680817604065e-01 -3.7300935387611389e-01</leafValues></_>
        <_>
          <internalNodes>
            0 -1 127 -1.8975524653797038e-05</internalNodes>
          <leafValues>
            1.6762104630470276e-01 -3.7448924779891968e-01</leafValues></_>
        <_>
          <internalNodes>
            0 -1 103 -1.1898424476385117e-02</internalNodes>
          <leafValues>
            -7.2174060344696045e-01 1.0144060105085373e-01</leafValues></_>
        <_>
          <internalNodes>
            0 -1 145 -4.9857844715006649e-05</internalNodes>
          <leafValues>
            3.2626995444297791e-01 -2.1562355756759644e-01</leafValues></_>
        <_>
          <internalNodes>
            0 -1 3 1.0472658686921932e-05</internalNodes>
          <leafValues>
            -2.8384095430374146e-01 2.3147521913051605e-01</leafValues></_>
        <_>
          <internalNodes>
            0 -1 12 1.2065320333931595e-04</internalNodes>
          <leafValues>
            -4.1362240910530090e-01 1.5493978559970856e-01</leafValues></_>
        <_>
          <internalNodes>
            0 -1 120 -5.0425242632627487e-02</internalNodes>
          <leafValues>
            3.4882840514183044e-01 -2.1184235811233521e-01</leafValues></_>
        <_>
          <internalNodes>
            0 -1 219 -3.2071196474134922e-03</internalNodes>
          <leafValues>
            -5.8150529861450195e-01 1.1427447199821472e-01</leafValues></_>
        <_>
          <internalNodes>
            0 -1 130 -2.7031280100345612e-02</internalNodes>
          <leafValues>
            4.3330124020576477e-01 -1.6511899232864380e-01</leafValues></_>
        <_>
          <internalNodes>
            0 -1 60 1.2984899803996086e-03</internalNodes>
          <leafValues>
            1.1882560700178146e-01 -6.4963239431381226e-01</leafValues></_>
        <_>
          <internalNodes>
            0 -1 67 -6.0230573581065983e-05</internalNodes>
          <leafValues>
            1.3152201473712921e-01 -5.0063169002532959e-01</leafValues></_>
        <_>
          <internalNodes>
            0 -1 172 6.4439065754413605e-02</internalNodes>
          <leafValues>
            -1.4025591313838959e-01 5.0549554824829102e-01</leafValues></_>
        <_>
          <internalNodes>
            0 -1 38 1.2726094573736191e-03</internalNodes>
          <leafValues>
            1.1556807160377502e-01 -5.9718924760818481e-01</leafValues></_>
        <_>
          <internalNodes>
            0 -1 100 -2.6739919121610001e-05</internalNodes>
          <leafValues>
            3.5019993782043457e-01 -1.8125328421592712e-01</leafValues></_>
        <_>
          <internalNodes>
            0 -1 100 2.7707885237759911e-05</internalNodes>
          <leafValues>
            -1.8512569367885590e-01 4.1338521242141724e-01</leafValues></_>
        <_>
          <internalNodes>
            0 -1 203 -4.6764048420300242e-06</internalNodes>
          <leafValues>
            1.9875782728195190e-01 -2.9665777087211609e-01</leafValues></_>
        <_>
          <internalNodes>
            0 -1 190 -2.8762603178620338e-03</internalNodes>
          <leafValues>
            -5.1872009038925171e-01 1.1186549067497253e-01</leafValues></_>
        <_>
          <internalNodes>
            0 -1 208 -1.6501678328495473e-04</internalNodes>
          <leafValues>
            -5.0365304946899414e-01 1.0415706783533096e-01</leafValues></_>
        <_>
          <internalNodes>
            0 -1 199 -9.3607886810787022e-06</internalNodes>
          <leafValues>
            3.2317915558815002e-01 -1.8198223412036896e-01</leafValues></_>
        <_>
          <internalNodes>
            0 -1 199 9.6128824225161225e-06</internalNodes>
          <leafValues>
            -2.1741041541099548e-01 3.2559680938720703e-01</leafValues></_>
        <_>
          <internalNodes>
            0 -1 63 -1.1507309973239899e-03</internalNodes>
          <leafValues>
            -8.0091410875320435e-01 8.8664270937442780e-02</leafValues></_>
        <_>
          <internalNodes>
            0 -1 65 1.0279606613039505e-05</internalNodes>
          <leafValues>
            -1.8388725817203522e-01 3.1669464707374573e-01</leafValues></_>
        <_>
          <internalNodes>
            0 -1 65 -9.3132593974587508e-06</internalNodes>
          <leafValues>
            2.9378044605255127e-01 -1.9875669479370117e-01</leafValues></_></weakClassifiers></_>
    <!-- stage 13 -->
    <_>
      <maxWeakCount>24</maxWeakCount>
      <stageThreshold>-8.2852113246917725e-01</stageThreshold>
      <weakClassifiers>
        <_>
          <internalNodes>
            0 -1 17 3.6290343850851059e-03</internalNodes>
          <leafValues>
            4.0720000863075256e-01 -5.8999997377395630e-01</leafValues></_>
        <_>
          <internalNodes>
            0 -1 144 7.5079388916492462e-02</internalNodes>
          <leafValues>
            -2.6499557495117188e-01 3.0678898096084595e-01</leafValues></_>
        <_>
          <internalNodes>
            0 -1 186 -2.1028361516073346e-04</internalNodes>
          <leafValues>
            2.0781280100345612e-01 -3.0660328269004822e-01</leafValues></_>
        <_>
          <internalNodes>
            0 -1 4 2.4016939569264650e-03</internalNodes>
          <leafValues>
            9.7699224948883057e-02 -6.3508516550064087e-01</leafValues></_>
        <_>
          <internalNodes>
            0 -1 192 -5.2584009245038033e-04</internalNodes>
          <leafValues>
            -5.7606744766235352e-01 1.0741336643695831e-01</leafValues></_>
        <_>
          <internalNodes>
            0 -1 61 -1.9261285196989775e-03</internalNodes>
          <leafValues>
            -5.8183449506759644e-01 9.5784351229667664e-02</leafValues></_>
        <_>
          <internalNodes>
            0 -1 210 1.3656954979524016e-04</internalNodes>
          <leafValues>
            1.0476218163967133e-01 -5.9228342771530151e-01</leafValues></_>
        <_>
          <internalNodes>
            0 -1 30 -2.0339174661785364e-03</internalNodes>
          <leafValues>
            -5.8942967653274536e-01 9.8626241087913513e-02</leafValues></_>
        <_>
          <internalNodes>
            0 -1 90 -7.9780357191339135e-04</internalNodes>
          <leafValues>
            -4.1712021827697754e-01 1.4140899479389191e-01</leafValues></_>
        <_>
          <internalNodes>
            0 -1 114 5.6086169024638366e-06</internalNodes>
          <leafValues>
            -3.6740058660507202e-01 1.7549701035022736e-01</leafValues></_>
        <_>
          <internalNodes>
            0 -1 84 -2.1092311362735927e-04</internalNodes>
          <leafValues>
            7.8614257276058197e-02 -6.0915488004684448e-01</leafValues></_>
        <_>
          <internalNodes>
            0 -1 146 -1.0232545173494145e-04</internalNodes>
          <leafValues>
            3.3613958954811096e-01 -1.8115738034248352e-01</leafValues></_>
        <_>
          <internalNodes>
            0 -1 154 -3.2272713724523783e-04</internalNodes>
          <leafValues>
            4.0015491843223572e-01 -1.6264294087886810e-01</leafValues></_>
        <_>
          <internalNodes>
            0 -1 177 1.1814680183306336e-03</internalNodes>
          <leafValues>
            1.2163994461297989e-01 -5.9024274349212646e-01</leafValues></_>
        <_>
          <internalNodes>
            0 -1 151 -1.4112549251876771e-04</internalNodes>
          <leafValues>
            3.0680847167968750e-01 -2.0092663168907166e-01</leafValues></_>
        <_>
          <internalNodes>
            0 -1 77 1.3837029691785574e-03</internalNodes>
          <leafValues>
            8.7739065289497375e-02 -6.8463021516799927e-01</leafValues></_>
        <_>
          <internalNodes>
            0 -1 171 -5.1608765497803688e-03</internalNodes>
          <leafValues>
            1.2362931668758392e-01 -4.7456121444702148e-01</leafValues></_>
        <_>
          <internalNodes>
            0 -1 28 1.5811176970601082e-02</internalNodes>
          <leafValues>
            -4.9419939517974854e-01 1.1363912373781204e-01</leafValues></_>
        <_>
          <internalNodes>
            0 -1 83 8.6455702330567874e-06</internalNodes>
          <leafValues>
            -1.9481416046619415e-01 3.1298089027404785e-01</leafValues></_>
        <_>
          <internalNodes>
            0 -1 83 -9.8813161457655951e-06</internalNodes>
          <leafValues>
            3.5591778159141541e-01 -2.2721970081329346e-01</leafValues></_>
        <_>
          <internalNodes>
            0 -1 89 2.3624848108738661e-04</internalNodes>
          <leafValues>
            1.4763537049293518e-01 -5.1436549425125122e-01</leafValues></_>
        <_>
          <internalNodes>
            0 -1 72 -4.4401873310562223e-05</internalNodes>
          <leafValues>
            3.0658096075057983e-01 -1.9570843875408173e-01</leafValues></_>
        <_>
          <internalNodes>
            0 -1 18 -8.9751032646745443e-04</internalNodes>
          <leafValues>
            -6.5361297130584717e-01 9.9030263721942902e-02</leafValues></_>
        <_>
          <internalNodes>
            0 -1 205 -4.3794605880975723e-03</internalNodes>
          <leafValues>
            -5.4458165168762207e-01 9.0116776525974274e-02</leafValues></_></weakClassifiers></_>
    <!-- stage 14 -->
    <_>
      <maxWeakCount>30</maxWeakCount>
      <stageThreshold>-8.1933152675628662e-01</stageThreshold>
      <weakClassifiers>
        <_>
          <internalNodes>
            0 -1 138 -6.1281792819499969e-02</internalNodes>
          <leafValues>
            4.8070174455642700e-01 -8.3687946200370789e-02</leafValues></_>
        <_>
          <internalNodes>
            0 -1 131 -3.7732612690888345e-04</internalNodes>
          <leafValues>
            -3.7375810742378235e-01 2.1119627356529236e-01</leafValues></_>
        <_>
          <internalNodes>
            0 -1 6 -5.0454272422939539e-04</internalNodes>
          <leafValues>
            -5.9612917900085449e-01 1.0510473698377609e-01</leafValues></_>
        <_>
          <internalNodes>
            0 -1 44 -8.6486700456589460e-04</internalNodes>
          <leafValues>
            -4.8800423741340637e-01 1.1711956560611725e-01</leafValues></_>
        <_>
          <internalNodes>
            0 -1 198 -3.7475110730156302e-04</internalNodes>
          <leafValues>
            1.6602802276611328e-01 -3.8034787774085999e-01</leafValues></_>
        <_>
          <internalNodes>
            0 -1 188 -7.3945836629718542e-04</internalNodes>
          <leafValues>
            -3.9469856023788452e-01 1.3388933241367340e-01</leafValues></_>
        <_>
          <internalNodes>
            0 -1 184 -1.8700135115068406e-05</internalNodes>
          <leafValues>
            3.5658302903175354e-01 -1.5209516882896423e-01</leafValues></_>
        <_>
          <internalNodes>
            0 -1 184 2.0660118025261909e-05</internalNodes>
          <leafValues>
            -1.7962834239006042e-01 3.5551241040229797e-01</leafValues></_>
        <_>
          <internalNodes>
            0 -1 168 -1.1474818165879697e-05</internalNodes>
          <leafValues>
            1.8717356026172638e-01 -2.7661693096160889e-01</leafValues></_>
        <_>
          <internalNodes>
            0 -1 102 -5.9823379851877689e-03</internalNodes>
          <leafValues>
            -5.6604814529418945e-01 9.7219452261924744e-02</leafValues></_>
        <_>
          <internalNodes>
            0 -1 43 -1.2933824109495617e-05</internalNodes>
          <leafValues>
            1.5463384985923767e-01 -3.6817726492881775e-01</leafValues></_>
        <_>
          <internalNodes>
            0 -1 174 -7.4438599403947592e-04</internalNodes>
          <leafValues>
            -4.0025183558464050e-01 1.2546949088573456e-01</leafValues></_>
        <_>
          <internalNodes>
            0 -1 115 -4.8536901886109263e-05</internalNodes>
          <leafValues>
            3.5008484125137329e-01 -1.6750788688659668e-01</leafValues></_>
        <_>
          <internalNodes>
            0 -1 21 -6.9112805649638176e-03</internalNodes>
          <leafValues>
            -6.5295147895812988e-01 9.1278985142707825e-02</leafValues></_>
        <_>
          <internalNodes>
            0 -1 129 -1.4094721700530499e-04</internalNodes>
          <leafValues>
            2.8492128849029541e-01 -1.9774259626865387e-01</leafValues></_>
        <_>
          <internalNodes>
            0 -1 119 -2.5805408135056496e-02</internalNodes>
          <leafValues>
            -7.7307611703872681e-01 6.0980472713708878e-02</leafValues></_>
        <_>
          <internalNodes>
            0 -1 68 5.4084311705082655e-04</internalNodes>
          <leafValues>
            8.1143848598003387e-02 -5.5055773258209229e-01</leafValues></_>
        <_>
          <internalNodes>
            0 -1 170 9.5599571068305522e-06</internalNodes>
          <leafValues>
            -1.7241084575653076e-01 3.1600081920623779e-01</leafValues></_>
        <_>
          <internalNodes>
            0 -1 45 -2.4034732632571831e-05</internalNodes>
          <leafValues>
            3.5771456360816956e-01 -1.4031220972537994e-01</leafValues></_>
        <_>
          <internalNodes>
            0 -1 200 -1.7653864342719316e-03</internalNodes>
          <leafValues>
            -5.7315593957901001e-01 9.0700045228004456e-02</leafValues></_>
        <_>
          <internalNodes>
            0 -1 117 -4.2575578845571727e-05</internalNodes>
          <leafValues>
            3.3479112386703491e-01 -1.6659586131572723e-01</leafValues></_>
        <_>
          <internalNodes>
            0 -1 159 -6.4928501844406128e-02</internalNodes>
          <leafValues>
            1.9762270152568817e-01 -2.8770574927330017e-01</leafValues></_>
        <_>
          <internalNodes>
            0 -1 79 -1.7600355204194784e-03</internalNodes>
          <leafValues>
            -5.0679296255111694e-01 1.0569309443235397e-01</leafValues></_>
        <_>
          <internalNodes>
            0 -1 169 -2.8000367819913663e-05</internalNodes>
          <leafValues>
            3.3286917209625244e-01 -1.7005759477615356e-01</leafValues></_>
        <_>
          <internalNodes>
            0 -1 123 7.6245242962613702e-04</internalNodes>
          <leafValues>
            7.6173588633537292e-02 -7.3625802993774414e-01</leafValues></_>
        <_>
          <internalNodes>
            0 -1 98 -9.7385936896898784e-06</internalNodes>
          <leafValues>
            2.9164022207260132e-01 -1.9210720062255859e-01</leafValues></_>
        <_>
          <internalNodes>
            0 -1 98 1.7201793525600806e-05</internalNodes>
          <leafValues>
            -1.5837110579013824e-01 3.4797453880310059e-01</leafValues></_>
        <_>
          <internalNodes>
            0 -1 82 1.7818958731368184e-03</internalNodes>
          <leafValues>
            1.1614730209112167e-01 -5.7437205314636230e-01</leafValues></_>
        <_>
          <internalNodes>
            0 -1 2 -1.0120712686330080e-03</internalNodes>
          <leafValues>
            -8.5272705554962158e-01 5.4356046020984650e-02</leafValues></_>
        <_>
          <internalNodes>
            0 -1 175 1.5390649205073714e-03</internalNodes>
          <leafValues>
            7.4153847992420197e-02 -5.9004580974578857e-01</leafValues></_></weakClassifiers></_></stages>
  <features>
    <_>
      <rects>
        <_>
          0 0 1 30 -1.</_>
        <_>
          0 10 1 10 3.</_></rects>
      <tilted>0</tilted></_>
    <_>
      <rects>
        <_>
          0 0 1 39 -1.</_>
        <_>
          0 13 1 13 3.</_></rects>
      <tilted>0</tilted></_>
    <_>
      <rects>
        <_>
          0 0 2 14 -1.</_>
        <_>
          1 0 1 14 2.</_></rects>
      <tilted>0</tilted></_>
    <_>
      <rects>
        <_>
          0 0 6 1 -1.</_>
        <_>
          3 0 3 1 2.</_></rects>
      <tilted>0</tilted></_>
    <_>
      <rects>
        <_>
          0 0 18 2 -1.</_>
        <_>
          6 0 6 2 3.</_></rects>
      <tilted>0</tilted></_>
    <_>
      <rects>
        <_>
          0 0 18 3 -1.</_>
        <_>
          9 0 9 3 2.</_></rects>
      <tilted>0</tilted></_>
    <_>
      <rects>
        <_>
          0 0 12 2 -1.</_>
        <_>
          0 1 12 1 2.</_></rects>
      <tilted>0</tilted></_>
    <_>
      <rects>
        <_>
          0 0 40 1 -1.</_>
        <_>
          20 0 20 1 2.</_></rects>
      <tilted>0</tilted></_>
    <_>
      <rects>
        <_>
          0 0 34 12 -1.</_>
        <_>
          0 6 34 6 2.</_></rects>
      <tilted>0</tilted></_>
    <_>
      <rects>
        <_>
          0 0 35 16 -1.</_>
        <_>
          0 8 35 8 2.</_></rects>
      <tilted>0</tilted></_>
    <_>
      <rects>
        <_>
          0 1 1 28 -1.</_>
        <_>
          0 15 1 14 2.</_></rects>
      <tilted>0</tilted></_>
    <_>
      <rects>
        <_>
          0 1 1 30 -1.</_>
        <_>
          0 16 1 15 2.</_></rects>
      <tilted>0</tilted></_>
    <_>
      <rects>
        <_>
          0 1 40 6 -1.</_>
        <_>
          0 4 40 3 2.</_></rects>
      <tilted>0</tilted></_>
    <_>
      <rects>
        <_>
          0 2 1 18 -1.</_>
        <_>
          0 11 1 9 2.</_></rects>
      <tilted>0</tilted></_>
    <_>
      <rects>
        <_>
          0 2 1 20 -1.</_>
        <_>
          0 12 1 10 2.</_></rects>
      <tilted>0</tilted></_>
    <_>
      <rects>
        <_>
          0 2 10 1 -1.</_>
        <_>
          5 2 5 1 2.</_></rects>
      <tilted>0</tilted></_>
    <_>
      <rects>
        <_>
          0 3 1 34 -1.</_>
        <_>
          0 20 1 17 2.</_></rects>
      <tilted>0</tilted></_>
    <_>
      <rects>
        <_>
          0 4 1 22 -1.</_>
        <_>
          0 15 1 11 2.</_></rects>
      <tilted>0</tilted></_>
    <_>
      <rects>
        <_>
          0 5 2 34 -1.</_>
        <_>
          1 5 1 34 2.</_></rects>
      <tilted>0</tilted></_>
    <_>
      <rects>
        <_>
          0 5 18 26 -1.</_>
        <_>
          9 5 9 26 2.</_></rects>
      <tilted>0</tilted></_>
    <_>
      <rects>
        <_>
          0 5 20 31 -1.</_>
        <_>
          10 5 10 31 2.</_></rects>
      <tilted>0</tilted></_>
    <_>
      <rects>
        <_>
          0 6 1 34 -1.</_>
        <_>
          0 23 1 17 2.</_></rects>
      <tilted>0</tilted></_>
    <_>
      <rects>
        <_>
          0 6 22 34 -1.</_>
        <_>
          11 6 11 34 2.</_></rects>
      <tilted>0</tilted></_>
    <_>
      <rects>
        <_>
          0 7 22 24 -1.</_>
        <_>
          11 7 11 24 2.</_></rects>
      <tilted>0</tilted></_>
    <_>
      <rects>
        <_>
          0 8 1 24 -1.</_>
        <_>
          0 16 1 8 3.</_></rects>
      <tilted>0</tilted></_>
    <_>
      <rects>
        <_>
          0 8 6 30 -1.</_>
        <_>
          3 8 3 30 2.</_></rects>
      <tilted>0</tilted></_>
    <_>
      <rects>
        <_>
          0 8 8 19 -1.</_>
        <_>
          4 8 4 19 2.</_></rects>
      <tilted>0</tilted></_>
    <_>
      <rects>
        <_>
          0 8 20 26 -1.</_>
        <_>
          10 8 10 26 2.</_></rects>
      <tilted>0</tilted></_>
    <_>
      <rects>
        <_>
          0 9 14 31 -1.</_>
        <_>
          7 9 7 31 2.</_></rects>
      <tilted>0</tilted></_>
    <_>
      <rects>
        <_>
          0 10 1 24 -1.</_>
        <_>
          0 18 1 8 3.</_></rects>
      <tilted>0</tilted></_>
    <_>
      <rects>
        <_>
          0 10 1 30 -1.</_>
        <_>
          0 20 1 10 3.</_></rects>
      <tilted>0</tilted></_>
    <_>
      <rects>
        <_>
          0 10 39 17 -1.</_>
        <_>
          13 10 13 17 3.</_></rects>
      <tilted>0</tilted></_>
    <_>
      <rects>
        <_>
          0 11 39 15 -1.</_>
        <_>
          13 11 13 15 3.</_></rects>
      <tilted>0</tilted></_>
    <_>
      <rects>
        <_>
          0 12 20 13 -1.</_>
        <_>
          10 12 10 13 2.</_></rects>
      <tilted>0</tilted></_>
    <_>
      <rects>
        <_>
          0 13 1 27 -1.</_>
        <_>
          0 22 1 9 3.</_></rects>
      <tilted>0</tilted></_>
    <_>
      <rects>
        <_>
          0 13 10 24 -1.</_>
        <_>
          5 13 5 24 2.</_></rects>
      <tilted>0</tilted></_>
    <_>
      <rects>
        <_>
          0 15 39 11 -1.</_>
        <_>
          13 15 13 11 3.</_></rects>
      <tilted>0</tilted></_>
    <_>
      <rects>
        <_>
          0 15 39 12 -1.</_>
        <_>
          13 15 13 12 3.</_></rects>
      <tilted>0</tilted></_>
    <_>
      <rects>
        <_>
          0 17 2 10 -1.</_>
        <_>
          0 22 2 5 2.</_></rects>
      <tilted>0</tilted></_>
    <_>
      <rects>
        <_>
          0 19 1 20 -1.</_>
        <_>
          0 29 1 10 2.</_></rects>
      <tilted>0</tilted></_>
    <_>
      <rects>
        <_>
          0 22 1 18 -1.</_>
        <_>
          0 28 1 6 3.</_></rects>
      <tilted>0</tilted></_>
    <_>
      <rects>
        <_>
          0 22 38 18 -1.</_>
        <_>
          0 31 38 9 2.</_></rects>
      <tilted>0</tilted></_>
    <_>
      <rects>
        <_>
          0 24 1 16 -1.</_>
        <_>
          0 32 1 8 2.</_></rects>
      <tilted>0</tilted></_>
    <_>
      <rects>
        <_>
          0 25 1 12 -1.</_>
        <_>
          0 31 1 6 2.</_></rects>
      <tilted>0</tilted></_>
    <_>
      <rects>
        <_>
          0 25 2 15 -1.</_>
        <_>
          0 30 2 5 3.</_></rects>
      <tilted>0</tilted></_>
    <_>
      <rects>
        <_>
          0 31 1 3 -1.</_>
        <_>
          0 32 1 1 3.</_></rects>
      <tilted>0</tilted></_>
    <_>
      <rects>
        <_>
          0 31 38 8 -1.</_>
        <_>
          0 35 38 4 2.</_></rects>
      <tilted>0</tilted></_>
    <_>
      <rects>
        <_>
          0 33 4 7 -1.</_>
        <_>
          2 33 2 7 2.</_></rects>
      <tilted>0</tilted></_>
    <_>
      <rects>
        <_>
          0 34 2 6 -1.</_>
        <_>
          1 34 1 6 2.</_></rects>
      <tilted>0</tilted></_>
    <_>
      <rects>
        <_>
          0 34 6 6 -1.</_>
        <_>
          0 37 6 3 2.</_></rects>
      <tilted>0</tilted></_>
    <_>
      <rects>
        <_>
          0 35 35 4 -1.</_>
        <_>
          0 37 35 2 2.</_></rects>
      <tilted>0</tilted></_>
    <_>
      <rects>
        <_>
          0 36 39 4 -1.</_>
        <_>
          0 38 39 2 2.</_></rects>
      <tilted>0</tilted></_>
    <_>
      <rects>
        <_>
          0 37 4 3 -1.</_>
        <_>
          2 37 2 3 2.</_></rects>
      <tilted>0</tilted></_>
    <_>
      <rects>
        <_>
          0 37 12 3 -1.</_>
        <_>
          4 37 4 3 3.</_></rects>
      <tilted>0</tilted></_>
    <_>
      <rects>
        <_>
          0 38 36 1 -1.</_>
        <_>
          18 38 18 1 2.</_></rects>
      <tilted>0</tilted></_>
    <_>
      <rects>
        <_>
          0 39 18 1 -1.</_>
        <_>
          6 39 6 1 3.</_></rects>
      <tilted>0</tilted></_>
    <_>
      <rects>
        <_>
          0 39 18 1 -1.</_>
        <_>
          9 39 9 1 2.</_></rects>
      <tilted>0</tilted></_>
    <_>
      <rects>
        <_>
          0 39 36 1 -1.</_>
        <_>
          12 39 12 1 3.</_></rects>
      <tilted>0</tilted></_>
    <_>
      <rects>
        <_>
          0 39 39 1 -1.</_>
        <_>
          13 39 13 1 3.</_></rects>
      <tilted>0</tilted></_>
    <_>
      <rects>
        <_>
          0 39 28 1 -1.</_>
        <_>
          14 39 14 1 2.</_></rects>
      <tilted>0</tilted></_>
    <_>
      <rects>
        <_>
          1 0 4 6 -1.</_>
        <_>
          1 3 4 3 2.</_></rects>
      <tilted>0</tilted></_>
    <_>
      <rects>
        <_>
          1 0 18 2 -1.</_>
        <_>
          7 0 6 2 3.</_></rects>
      <tilted>0</tilted></_>
    <_>
      <rects>
        <_>
          1 4 1 36 -1.</_>
        <_>
          1 16 1 12 3.</_></rects>
      <tilted>0</tilted></_>
    <_>
      <rects>
        <_>
          1 9 4 5 -1.</_>
        <_>
          3 9 2 5 2.</_></rects>
      <tilted>0</tilted></_>
    <_>
      <rects>
        <_>
          1 29 4 10 -1.</_>
        <_>
          1 34 4 5 2.</_></rects>
      <tilted>0</tilted></_>
    <_>
      <rects>
        <_>
          1 31 2 2 -1.</_>
        <_>
          1 31 1 1 2.</_>
        <_>
          2 32 1 1 2.</_></rects>
      <tilted>0</tilted></_>
    <_>
      <rects>
        <_>
          1 31 6 5 -1.</_>
        <_>
          4 31 3 5 2.</_></rects>
      <tilted>0</tilted></_>
    <_>
      <rects>
        <_>
          1 36 39 4 -1.</_>
        <_>
          1 38 39 2 2.</_></rects>
      <tilted>0</tilted></_>
    <_>
      <rects>
        <_>
          1 37 28 2 -1.</_>
        <_>
          1 37 14 1 2.</_>
        <_>
          15 38 14 1 2.</_></rects>
      <tilted>0</tilted></_>
    <_>
      <rects>
        <_>
          1 38 34 2 -1.</_>
        <_>
          1 39 34 1 2.</_></rects>
      <tilted>0</tilted></_>
    <_>
      <rects>
        <_>
          2 2 2 10 -1.</_>
        <_>
          2 7 2 5 2.</_></rects>
      <tilted>0</tilted></_>
    <_>
      <rects>
        <_>
          2 18 38 22 -1.</_>
        <_>
          2 29 38 11 2.</_></rects>
      <tilted>0</tilted></_>
    <_>
      <rects>
        <_>
          2 19 3 3 -1.</_>
        <_>
          2 20 3 1 3.</_></rects>
      <tilted>0</tilted></_>
    <_>
      <rects>
        <_>
          2 27 3 9 -1.</_>
        <_>
          2 30 3 3 3.</_></rects>
      <tilted>0</tilted></_>
    <_>
      <rects>
        <_>
          2 29 1 8 -1.</_>
        <_>
          2 33 1 4 2.</_></rects>
      <tilted>0</tilted></_>
    <_>
      <rects>
        <_>
          2 32 3 8 -1.</_>
        <_>
          2 36 3 4 2.</_></rects>
      <tilted>0</tilted></_>
    <_>
      <rects>
        <_>
          2 39 12 1 -1.</_>
        <_>
          6 39 4 1 3.</_></rects>
      <tilted>0</tilted></_>
    <_>
      <rects>
        <_>
          2 39 14 1 -1.</_>
        <_>
          9 39 7 1 2.</_></rects>
      <tilted>0</tilted></_>
    <_>
      <rects>
        <_>
          2 39 38 1 -1.</_>
        <_>
          21 39 19 1 2.</_></rects>
      <tilted>0</tilted></_>
    <_>
      <rects>
        <_>
          3 0 12 4 -1.</_>
        <_>
          7 0 4 4 3.</_></rects>
      <tilted>0</tilted></_>
    <_>
      <rects>
        <_>
          3 0 24 1 -1.</_>
        <_>
          11 0 8 1 3.</_></rects>
      <tilted>0</tilted></_>
    <_>
      <rects>
        <_>
          3 0 34 20 -1.</_>
        <_>
          3 10 34 10 2.</_></rects>
      <tilted>0</tilted></_>
    <_>
      <rects>
        <_>
          3 2 12 4 -1.</_>
        <_>
          7 2 4 4 3.</_></rects>
      <tilted>0</tilted></_>
    <_>
      <rects>
        <_>
          3 4 2 2 -1.</_>
        <_>
          3 4 1 1 2.</_>
        <_>
          4 5 1 1 2.</_></rects>
      <tilted>0</tilted></_>
    <_>
      <rects>
        <_>
          3 31 25 8 -1.</_>
        <_>
          3 35 25 4 2.</_></rects>
      <tilted>0</tilted></_>
    <_>
      <rects>
        <_>
          3 38 18 2 -1.</_>
        <_>
          3 39 18 1 2.</_></rects>
      <tilted>0</tilted></_>
    <_>
      <rects>
        <_>
          4 0 30 1 -1.</_>
        <_>
          14 0 10 1 3.</_></rects>
      <tilted>0</tilted></_>
    <_>
      <rects>
        <_>
          4 0 21 22 -1.</_>
        <_>
          4 11 21 11 2.</_></rects>
      <tilted>0</tilted></_>
    <_>
      <rects>
        <_>
          4 0 26 20 -1.</_>
        <_>
          4 10 26 10 2.</_></rects>
      <tilted>0</tilted></_>
    <_>
      <rects>
        <_>
          4 7 4 1 -1.</_>
        <_>
          6 7 2 1 2.</_></rects>
      <tilted>0</tilted></_>
    <_>
      <rects>
        <_>
          4 33 7 4 -1.</_>
        <_>
          4 35 7 2 2.</_></rects>
      <tilted>0</tilted></_>
    <_>
      <rects>
        <_>
          4 39 15 1 -1.</_>
        <_>
          9 39 5 1 3.</_></rects>
      <tilted>0</tilted></_>
    <_>
      <rects>
        <_>
          5 1 10 38 -1.</_>
        <_>
          10 1 5 38 2.</_></rects>
      <tilted>0</tilted></_>
    <_>
      <rects>
        <_>
          5 32 35 6 -1.</_>
        <_>
          5 35 35 3 2.</_></rects>
      <tilted>0</tilted></_>
    <_>
      <rects>
        <_>
          6 0 30 20 -1.</_>
        <_>
          6 10 30 10 2.</_></rects>
      <tilted>0</tilted></_>
    <_>
      <rects>
        <_>
          6 1 3 1 -1.</_>
        <_>
          7 1 1 1 3.</_></rects>
      <tilted>0</tilted></_>
    <_>
      <rects>
        <_>
          6 22 32 18 -1.</_>
        <_>
          6 31 32 9 2.</_></rects>
      <tilted>0</tilted></_>
    <_>
      <rects>
        <_>
          6 32 34 8 -1.</_>
        <_>
          6 36 34 4 2.</_></rects>
      <tilted>0</tilted></_>
    <_>
      <rects>
        <_>
          7 0 2 2 -1.</_>
        <_>
          7 0 1 1 2.</_>
        <_>
          8 1 1 1 2.</_></rects>
      <tilted>0</tilted></_>
    <_>
      <rects>
        <_>
          7 0 33 1 -1.</_>
        <_>
          18 0 11 1 3.</_></rects>
      <tilted>0</tilted></_>
    <_>
      <rects>
        <_>
          7 8 2 2 -1.</_>
        <_>
          7 8 1 1 2.</_>
        <_>
          8 9 1 1 2.</_></rects>
      <tilted>0</tilted></_>
    <_>
      <rects>
        <_>
          8 18 26 22 -1.</_>
        <_>
          8 29 26 11 2.</_></rects>
      <tilted>0</tilted></_>
    <_>
      <rects>
        <_>
          10 0 24 2 -1.</_>
        <_>
          22 0 12 2 2.</_></rects>
      <tilted>0</tilted></_>
    <_>
      <rects>
        <_>
          10 0 30 2 -1.</_>
        <_>
          25 0 15 2 2.</_></rects>
      <tilted>0</tilted></_>
    <_>
      <rects>
        <_>
          10 38 27 2 -1.</_>
        <_>
          19 38 9 2 3.</_></rects>
      <tilted>0</tilted></_>
    <_>
      <rects>
        <_>
          11 0 18 39 -1.</_>
        <_>
          11 13 18 13 3.</_></rects>
      <tilted>0</tilted></_>
    <_>
      <rects>
        <_>
          11 0 21 36 -1.</_>
        <_>
          11 12 21 12 3.</_></rects>
      <tilted>0</tilted></_>
    <_>
      <rects>
        <_>
          12 0 15 39 -1.</_>
        <_>
          12 13 15 13 3.</_></rects>
      <tilted>0</tilted></_>
    <_>
      <rects>
        <_>
          12 15 1 3 -1.</_>
        <_>
          12 16 1 1 3.</_></rects>
      <tilted>0</tilted></_>
    <_>
      <rects>
        <_>
          12 16 27 24 -1.</_>
        <_>
          12 28 27 12 2.</_></rects>
      <tilted>0</tilted></_>
    <_>
      <rects>
        <_>
          12 38 27 2 -1.</_>
        <_>
          12 39 27 1 2.</_></rects>
      <tilted>0</tilted></_>
    <_>
      <rects>
        <_>
          13 0 11 39 -1.</_>
        <_>
          13 13 11 13 3.</_></rects>
      <tilted>0</tilted></_>
    <_>
      <rects>
        <_>
          13 0 13 39 -1.</_>
        <_>
          13 13 13 13 3.</_></rects>
      <tilted>0</tilted></_>
    <_>
      <rects>
        <_>
          13 19 7 3 -1.</_>
        <_>
          13 20 7 1 3.</_></rects>
      <tilted>0</tilted></_>
    <_>
      <rects>
        <_>
          14 0 20 6 -1.</_>
        <_>
          14 3 20 3 2.</_></rects>
      <tilted>0</tilted></_>
    <_>
      <rects>
        <_>
          14 1 3 2 -1.</_>
        <_>
          15 1 1 2 3.</_></rects>
      <tilted>0</tilted></_>
    <_>
      <rects>
        <_>
          14 20 3 5 -1.</_>
        <_>
          15 20 1 5 3.</_></rects>
      <tilted>0</tilted></_>
    <_>
      <rects>
        <_>
          15 1 3 2 -1.</_>
        <_>
          16 1 1 2 3.</_></rects>
      <tilted>0</tilted></_>
    <_>
      <rects>
        <_>
          15 1 25 8 -1.</_>
        <_>
          15 5 25 4 2.</_></rects>
      <tilted>0</tilted></_>
    <_>
      <rects>
        <_>
          15 5 9 26 -1.</_>
        <_>
          18 5 3 26 3.</_></rects>
      <tilted>0</tilted></_>
    <_>
      <rects>
        <_>
          15 10 4 28 -1.</_>
        <_>
          15 24 4 14 2.</_></rects>
      <tilted>0</tilted></_>
    <_>
      <rects>
        <_>
          15 17 3 3 -1.</_>
        <_>
          16 17 1 3 3.</_></rects>
      <tilted>0</tilted></_>
    <_>
      <rects>
        <_>
          15 19 2 2 -1.</_>
        <_>
          15 19 1 1 2.</_>
        <_>
          16 20 1 1 2.</_></rects>
      <tilted>0</tilted></_>
    <_>
      <rects>
        <_>
          15 39 8 1 -1.</_>
        <_>
          19 39 4 1 2.</_></rects>
      <tilted>0</tilted></_>
    <_>
      <rects>
        <_>
          16 1 8 39 -1.</_>
        <_>
          16 14 8 13 3.</_></rects>
      <tilted>0</tilted></_>
    <_>
      <rects>
        <_>
          16 16 24 24 -1.</_>
        <_>
          16 16 12 12 2.</_>
        <_>
          28 28 12 12 2.</_></rects>
      <tilted>0</tilted></_>
    <_>
      <rects>
        <_>
          17 0 2 2 -1.</_>
        <_>
          17 0 1 1 2.</_>
        <_>
          18 1 1 1 2.</_></rects>
      <tilted>0</tilted></_>
    <_>
      <rects>
        <_>
          17 0 16 2 -1.</_>
        <_>
          25 0 8 2 2.</_></rects>
      <tilted>0</tilted></_>
    <_>
      <rects>
        <_>
          17 19 1 3 -1.</_>
        <_>
          17 20 1 1 3.</_></rects>
      <tilted>0</tilted></_>
    <_>
      <rects>
        <_>
          17 19 2 3 -1.</_>
        <_>
          17 20 2 1 3.</_></rects>
      <tilted>0</tilted></_>
    <_>
      <rects>
        <_>
          17 26 5 14 -1.</_>
        <_>
          17 33 5 7 2.</_></rects>
      <tilted>0</tilted></_>
    <_>
      <rects>
        <_>
          17 36 4 4 -1.</_>
        <_>
          17 38 4 2 2.</_></rects>
      <tilted>0</tilted></_>
    <_>
      <rects>
        <_>
          18 4 22 36 -1.</_>
        <_>
          29 4 11 36 2.</_></rects>
      <tilted>0</tilted></_>
    <_>
      <rects>
        <_>
          18 5 20 4 -1.</_>
        <_>
          28 5 10 4 2.</_></rects>
      <tilted>0</tilted></_>
    <_>
      <rects>
        <_>
          18 6 22 31 -1.</_>
        <_>
          29 6 11 31 2.</_></rects>
      <tilted>0</tilted></_>
    <_>
      <rects>
        <_>
          18 7 22 23 -1.</_>
        <_>
          29 7 11 23 2.</_></rects>
      <tilted>0</tilted></_>
    <_>
      <rects>
        <_>
          18 12 3 1 -1.</_>
        <_>
          19 12 1 1 3.</_></rects>
      <tilted>0</tilted></_>
    <_>
      <rects>
        <_>
          18 12 22 13 -1.</_>
        <_>
          29 12 11 13 2.</_></rects>
      <tilted>0</tilted></_>
    <_>
      <rects>
        <_>
          18 15 22 9 -1.</_>
        <_>
          29 15 11 9 2.</_></rects>
      <tilted>0</tilted></_>
    <_>
      <rects>
        <_>
          18 17 3 1 -1.</_>
        <_>
          19 17 1 1 3.</_></rects>
      <tilted>0</tilted></_>
    <_>
      <rects>
        <_>
          18 18 3 1 -1.</_>
        <_>
          19 18 1 1 3.</_></rects>
      <tilted>0</tilted></_>
    <_>
      <rects>
        <_>
          18 22 3 2 -1.</_>
        <_>
          19 22 1 2 3.</_></rects>
      <tilted>0</tilted></_>
    <_>
      <rects>
        <_>
          18 39 18 1 -1.</_>
        <_>
          24 39 6 1 3.</_></rects>
      <tilted>0</tilted></_>
    <_>
      <rects>
        <_>
          18 39 22 1 -1.</_>
        <_>
          29 39 11 1 2.</_></rects>
      <tilted>0</tilted></_>
    <_>
      <rects>
        <_>
          19 0 4 39 -1.</_>
        <_>
          19 13 4 13 3.</_></rects>
      <tilted>0</tilted></_>
    <_>
      <rects>
        <_>
          19 8 3 1 -1.</_>
        <_>
          20 8 1 1 3.</_></rects>
      <tilted>0</tilted></_>
    <_>
      <rects>
        <_>
          19 15 3 1 -1.</_>
        <_>
          20 15 1 1 3.</_></rects>
      <tilted>0</tilted></_>
    <_>
      <rects>
        <_>
          19 20 3 2 -1.</_>
        <_>
          20 20 1 2 3.</_></rects>
      <tilted>0</tilted></_>
    <_>
      <rects>
        <_>
          19 20 2 4 -1.</_>
        <_>
          19 20 1 2 2.</_>
        <_>
          20 22 1 2 2.</_></rects>
      <tilted>0</tilted></_>
    <_>
      <rects>
        <_>
          20 6 20 34 -1.</_>
        <_>
          30 6 10 34 2.</_></rects>
      <tilted>0</tilted></_>
    <_>
      <rects>
        <_>
          20 7 20 23 -1.</_>
        <_>
          30 7 10 23 2.</_></rects>
      <tilted>0</tilted></_>
    <_>
      <rects>
        <_>
          20 15 2 3 -1.</_>
        <_>
          20 16 2 1 3.</_></rects>
      <tilted>0</tilted></_>
    <_>
      <rects>
        <_>
          20 19 1 2 -1.</_>
        <_>
          20 20 1 1 2.</_></rects>
      <tilted>0</tilted></_>
    <_>
      <rects>
        <_>
          20 19 1 3 -1.</_>
        <_>
          20 20 1 1 3.</_></rects>
      <tilted>0</tilted></_>
    <_>
      <rects>
        <_>
          21 14 2 3 -1.</_>
        <_>
          21 15 2 1 3.</_></rects>
      <tilted>0</tilted></_>
    <_>
      <rects>
        <_>
          21 39 18 1 -1.</_>
        <_>
          27 39 6 1 3.</_></rects>
      <tilted>0</tilted></_>
    <_>
      <rects>
        <_>
          22 0 18 1 -1.</_>
        <_>
          31 0 9 1 2.</_></rects>
      <tilted>0</tilted></_>
    <_>
      <rects>
        <_>
          22 0 18 34 -1.</_>
        <_>
          31 0 9 34 2.</_></rects>
      <tilted>0</tilted></_>
    <_>
      <rects>
        <_>
          22 1 18 1 -1.</_>
        <_>
          31 1 9 1 2.</_></rects>
      <tilted>0</tilted></_>
    <_>
      <rects>
        <_>
          22 15 18 15 -1.</_>
        <_>
          31 15 9 15 2.</_></rects>
      <tilted>0</tilted></_>
    <_>
      <rects>
        <_>
          22 38 15 1 -1.</_>
        <_>
          27 38 5 1 3.</_></rects>
      <tilted>0</tilted></_>
    <_>
      <rects>
        <_>
          22 38 16 2 -1.</_>
        <_>
          22 39 16 1 2.</_></rects>
      <tilted>0</tilted></_>
    <_>
      <rects>
        <_>
          23 0 16 2 -1.</_>
        <_>
          31 0 8 2 2.</_></rects>
      <tilted>0</tilted></_>
    <_>
      <rects>
        <_>
          23 4 4 36 -1.</_>
        <_>
          23 16 4 12 3.</_></rects>
      <tilted>0</tilted></_>
    <_>
      <rects>
        <_>
          23 13 3 9 -1.</_>
        <_>
          24 13 1 9 3.</_></rects>
      <tilted>0</tilted></_>
    <_>
      <rects>
        <_>
          23 22 1 3 -1.</_>
        <_>
          23 23 1 1 3.</_></rects>
      <tilted>0</tilted></_>
    <_>
      <rects>
        <_>
          26 0 14 11 -1.</_>
        <_>
          33 0 7 11 2.</_></rects>
      <tilted>0</tilted></_>
    <_>
      <rects>
        <_>
          26 38 14 1 -1.</_>
        <_>
          33 38 7 1 2.</_></rects>
      <tilted>0</tilted></_>
    <_>
      <rects>
        <_>
          26 39 10 1 -1.</_>
        <_>
          31 39 5 1 2.</_></rects>
      <tilted>0</tilted></_>
    <_>
      <rects>
        <_>
          27 4 3 1 -1.</_>
        <_>
          28 4 1 1 3.</_></rects>
      <tilted>0</tilted></_>
    <_>
      <rects>
        <_>
          28 0 2 2 -1.</_>
        <_>
          28 0 1 1 2.</_>
        <_>
          29 1 1 1 2.</_></rects>
      <tilted>0</tilted></_>
    <_>
      <rects>
        <_>
          28 1 8 34 -1.</_>
        <_>
          32 1 4 34 2.</_></rects>
      <tilted>0</tilted></_>
    <_>
      <rects>
        <_>
          28 7 7 27 -1.</_>
        <_>
          28 16 7 9 3.</_></rects>
      <tilted>0</tilted></_>
    <_>
      <rects>
        <_>
          28 32 12 8 -1.</_>
        <_>
          32 32 4 8 3.</_></rects>
      <tilted>0</tilted></_>
    <_>
      <rects>
        <_>
          28 35 12 4 -1.</_>
        <_>
          32 35 4 4 3.</_></rects>
      <tilted>0</tilted></_>
    <_>
      <rects>
        <_>
          28 36 12 4 -1.</_>
        <_>
          32 36 4 4 3.</_></rects>
      <tilted>0</tilted></_>
    <_>
      <rects>
        <_>
          28 38 8 2 -1.</_>
        <_>
          28 39 8 1 2.</_></rects>
      <tilted>0</tilted></_>
    <_>
      <rects>
        <_>
          29 0 9 4 -1.</_>
        <_>
          29 2 9 2 2.</_></rects>
      <tilted>0</tilted></_>
    <_>
      <rects>
        <_>
          30 1 10 1 -1.</_>
        <_>
          35 1 5 1 2.</_></rects>
      <tilted>0</tilted></_>
    <_>
      <rects>
        <_>
          30 20 10 15 -1.</_>
        <_>
          35 20 5 15 2.</_></rects>
      <tilted>0</tilted></_>
    <_>
      <rects>
        <_>
          30 35 3 4 -1.</_>
        <_>
          30 37 3 2 2.</_></rects>
      <tilted>0</tilted></_>
    <_>
      <rects>
        <_>
          30 38 9 1 -1.</_>
        <_>
          33 38 3 1 3.</_></rects>
      <tilted>0</tilted></_>
    <_>
      <rects>
        <_>
          30 39 10 1 -1.</_>
        <_>
          35 39 5 1 2.</_></rects>
      <tilted>0</tilted></_>
    <_>
      <rects>
        <_>
          31 0 8 33 -1.</_>
        <_>
          35 0 4 33 2.</_></rects>
      <tilted>0</tilted></_>
    <_>
      <rects>
        <_>
          31 35 2 2 -1.</_>
        <_>
          31 35 1 1 2.</_>
        <_>
          32 36 1 1 2.</_></rects>
      <tilted>0</tilted></_>
    <_>
      <rects>
        <_>
          32 0 6 2 -1.</_>
        <_>
          32 0 3 1 2.</_>
        <_>
          35 1 3 1 2.</_></rects>
      <tilted>0</tilted></_>
    <_>
      <rects>
        <_>
          32 0 8 3 -1.</_>
        <_>
          36 0 4 3 2.</_></rects>
      <tilted>0</tilted></_>
    <_>
      <rects>
        <_>
          32 1 8 8 -1.</_>
        <_>
          36 1 4 8 2.</_></rects>
      <tilted>0</tilted></_>
    <_>
      <rects>
        <_>
          32 29 8 2 -1.</_>
        <_>
          36 29 4 2 2.</_></rects>
      <tilted>0</tilted></_>
    <_>
      <rects>
        <_>
          32 33 6 2 -1.</_>
        <_>
          32 34 6 1 2.</_></rects>
      <tilted>0</tilted></_>
    <_>
      <rects>
        <_>
          34 0 6 8 -1.</_>
        <_>
          37 0 3 8 2.</_></rects>
      <tilted>0</tilted></_>
    <_>
      <rects>
        <_>
          34 8 6 32 -1.</_>
        <_>
          37 8 3 32 2.</_></rects>
      <tilted>0</tilted></_>
    <_>
      <rects>
        <_>
          34 32 6 2 -1.</_>
        <_>
          37 32 3 2 2.</_></rects>
      <tilted>0</tilted></_>
    <_>
      <rects>
        <_>
          34 34 4 6 -1.</_>
        <_>
          34 37 4 3 2.</_></rects>
      <tilted>0</tilted></_>
    <_>
      <rects>
        <_>
          35 0 4 3 -1.</_>
        <_>
          37 0 2 3 2.</_></rects>
      <tilted>0</tilted></_>
    <_>
      <rects>
        <_>
          35 0 4 8 -1.</_>
        <_>
          37 0 2 8 2.</_></rects>
      <tilted>0</tilted></_>
    <_>
      <rects>
        <_>
          35 7 4 30 -1.</_>
        <_>
          37 7 2 30 2.</_></rects>
      <tilted>0</tilted></_>
    <_>
      <rects>
        <_>
          36 0 4 8 -1.</_>
        <_>
          38 0 2 8 2.</_></rects>
      <tilted>0</tilted></_>
    <_>
      <rects>
        <_>
          36 7 4 26 -1.</_>
        <_>
          38 7 2 26 2.</_></rects>
      <tilted>0</tilted></_>
    <_>
      <rects>
        <_>
          36 30 2 2 -1.</_>
        <_>
          36 30 1 1 2.</_>
        <_>
          37 31 1 1 2.</_></rects>
      <tilted>0</tilted></_>
    <_>
      <rects>
        <_>
          37 0 3 10 -1.</_>
        <_>
          37 5 3 5 2.</_></rects>
      <tilted>0</tilted></_>
    <_>
      <rects>
        <_>
          37 1 1 14 -1.</_>
        <_>
          37 8 1 7 2.</_></rects>
      <tilted>0</tilted></_>
    <_>
      <rects>
        <_>
          37 32 3 6 -1.</_>
        <_>
          37 35 3 3 2.</_></rects>
      <tilted>0</tilted></_>
    <_>
      <rects>
        <_>
          38 0 2 6 -1.</_>
        <_>
          39 0 1 6 2.</_></rects>
      <tilted>0</tilted></_>
    <_>
      <rects>
        <_>
          38 0 2 11 -1.</_>
        <_>
          39 0 1 11 2.</_></rects>
      <tilted>0</tilted></_>
    <_>
      <rects>
        <_>
          38 0 2 33 -1.</_>
        <_>
          38 11 2 11 3.</_></rects>
      <tilted>0</tilted></_>
    <_>
      <rects>
        <_>
          38 4 2 36 -1.</_>
        <_>
          38 16 2 12 3.</_></rects>
      <tilted>0</tilted></_>
    <_>
      <rects>
        <_>
          38 26 1 10 -1.</_>
        <_>
          38 31 1 5 2.</_></rects>
      <tilted>0</tilted></_>
    <_>
      <rects>
        <_>
          38 31 1 6 -1.</_>
        <_>
          38 34 1 3 2.</_></rects>
      <tilted>0</tilted></_>
    <_>
      <rects>
        <_>
          38 31 2 8 -1.</_>
        <_>
          38 35 2 4 2.</_></rects>
      <tilted>0</tilted></_>
    <_>
      <rects>
        <_>
          38 32 2 8 -1.</_>
        <_>
          39 32 1 8 2.</_></rects>
      <tilted>0</tilted></_>
    <_>
      <rects>
        <_>
          38 34 2 6 -1.</_>
        <_>
          38 37 2 3 2.</_></rects>
      <tilted>0</tilted></_>
    <_>
      <rects>
        <_>
          39 0 1 30 -1.</_>
        <_>
          39 10 1 10 3.</_></rects>
      <tilted>0</tilted></_>
    <_>
      <rects>
        <_>
          39 0 1 39 -1.</_>
        <_>
          39 13 1 13 3.</_></rects>
      <tilted>0</tilted></_>
    <_>
      <rects>
        <_>
          39 1 1 32 -1.</_>
        <_>
          39 17 1 16 2.</_></rects>
      <tilted>0</tilted></_>
    <_>
      <rects>
        <_>
          39 2 1 16 -1.</_>
        <_>
          39 10 1 8 2.</_></rects>
      <tilted>0</tilted></_>
    <_>
      <rects>
        <_>
          39 3 1 22 -1.</_>
        <_>
          39 14 1 11 2.</_></rects>
      <tilted>0</tilted></_>
    <_>
      <rects>
        <_>
          39 6 1 33 -1.</_>
        <_>
          39 17 1 11 3.</_></rects>
      <tilted>0</tilted></_>
    <_>
      <rects>
        <_>
          39 12 1 28 -1.</_>
        <_>
          39 26 1 14 2.</_></rects>
      <tilted>0</tilted></_>
    <_>
      <rects>
        <_>
          39 14 1 26 -1.</_>
        <_>
          39 27 1 13 2.</_></rects>
      <tilted>0</tilted></_>
    <_>
      <rects>
        <_>
          39 23 1 16 -1.</_>
        <_>
          39 31 1 8 2.</_></rects>
      <tilted>0</tilted></_></features></cascade>
</opencv_storage>
